\data\
ngram 1=3746
ngram 2=20690
ngram 3=33468
ngram 4=34808

\1-grams:
-99.000000	<s>	0.000000
-2.056213	THEY	-0.000000
-2.043272	DO	-0.000000
-1.710741	A	-0.000000
-2.649335	LOT	-0.000000
-1.906930	OF	-0.000000
-3.665725	LOW	-0.000000
-4.080699	KEY	-0.000000
-3.825426	SHOWS	-0.000000
-0.919930	</s>	-0.000000
-2.652564	SO	-0.000000
-1.779669	IT	-0.000000
-2.940820	SHOULD	-0.000000
-2.401271	BE	-0.000000
-2.845170	AN	-0.000000
-3.288307	EASY	-0.000000
-2.934571	DECISION	-0.000000
-2.662397	RIGHT	-0.000000
-3.457449	HAVING	-0.000000
-3.500915	GONE	-0.000000
-1.685197	TO	-0.000000
-1.618900	THE	-0.000000
-4.478639	UNIVERSITY	-0.000000
-4.478639	MINNESOTA	-0.000000
-2.174364	WE	-0.000000
-2.459522	THINK	-0.000000
-2.388734	THERE	-0.000000
-1.840649	IS	-0.000000
-2.742242	MORE	-0.000000
-1.974848	THIS	-0.000000
-3.478639	STORY	-0.000000
-2.646130	I'M	-0.000000
-4.177609	SITTING	-0.000000
-2.395853	HERE	-0.000000
-2.006614	IN	-0.000000
-2.020757	MY	-0.000000
-3.825426	FORTY	-0.000000
-2.904607	YEAR	-0.000000
-2.987277	OLD	-0.000000
-2.893178	HOUSE	-0.000000
-2.126456	ARE	-0.000000
-4.478639	EXCITED	-0.000000
-4.779669	LAUNCHING	-0.000000
-2.850250	NEW	-0.000000
-3.665725	VERSION	-0.000000
-2.131309	NOT	-0.000000
-2.510156	REALLY	-0.000000
-4.779669	RATIONING	-0.000000
-3.437246	WATER	-0.000000
-3.700487	WOMAN	-0.000000
-2.195337	AND	-0.000000
-4.080699	MAN	-0.000000
-3.166885	BOTH	-0.000000
-2.271813	LIKE	-0.000000
-3.072098	THEIR	-0.000000
-3.738276	CAT	-0.000000
-1.717087	YOU	-0.000000
-3.177609	CAN'T	-0.000000
-2.860591	MAKE	-0.000000
-4.779669	VECTOR	-0.000000
-4.177609	VERSIONS	-0.000000
-4.779669	BOTTLENECKS	-0.000000
-1.508990	I	-0.000000
-3.348305	LOVE	-0.000000
-3.665725	CARD	-0.000000
-3.364695	GAME	-0.000000
-3.126456	NEXT	-0.000000
-3.211467	FIVE	-0.000000
-2.947160	YEARS	-0.000000
-2.718971	WORK	-0.000000
-3.116911	HARD	-0.000000
-3.072098	OVER	-0.000000
-3.524396	WEEKEND	-0.000000
-2.562185	HOPE	-0.000000
-2.366369	WILL	-0.000000
-3.126456	WEEK	-0.000000
-3.146200	YES	-0.000000
-2.008081	HAVE	-0.000000
-3.047275	THOSE	-0.000000
-2.980328	BAD	-0.000000
-2.928410	MUSIC	-0.000000
-2.570154	HE	-0.000000
-4.779669	AFFECTS	-0.000000
-2.704122	PEOPLE	-0.000000
-3.417941	SOMEONE	-0.000000
-3.437246	ALREADY	-0.000000
-2.642948	NOW	-0.000000
-2.581012	GET	-0.000000
-4.478639	SICK	-0.000000
-2.662397	HAD	-0.000000
-4.080699	PARTY	-0.000000
-3.248190	AFTER	-0.000000
-4.177609	FINAL	-0.000000
-4.478639	EXAM	-0.000000
-2.179786	WAS	-0.000000
-3.437246	CAME	-0.000000
-2.646130	OUT	-0.000000
-2.860591	OUR	-0.000000
-4.779669	SHELLS	-0.000000
-3.364695	TRUE	-0.000000
-3.248190	LIFE	-0.000000
-2.597825	KNOW	-0.000000
-2.922336	THEY'RE	-0.000000
-4.478639	PROUD	-0.000000
-4.779669	INDEPENDENCE	-0.000000
-3.524396	MUST	-0.000000
-3.274519	CHANGE	-0.000000
-3.288307	JOB	-0.000000
-3.317271	SOON	-0.000000
-3.188604	THAN	-0.000000
-2.934571	TWO	-0.000000
-3.302547	AGO	-0.000000
-4.177609	ELEVEN	-0.000000
-4.177609	SON	-0.000000
-3.072098	FIRST	-0.000000
-4.779669	DEMONSTRATION	-0.000000
-4.302547	TOUCH	-0.000000
-4.779669	SCREEN	-0.000000
-4.779669	DISPLAY	-0.000000
-3.417941	PART	-0.000000
-2.439225	VERY	-0.000000
-3.001517	BIG	-0.000000
-1.884799	THAT	-0.000000
-3.876579	GAVE	-0.000000
-2.893178	US	-0.000000
-3.665725	SPACE	-0.000000
-3.031481	BEFORE	-0.000000
-3.738276	TOOK	-0.000000
-3.248190	OFF	-0.000000
-2.586544	TIME	-0.000000
-3.274519	SEEMS	-0.000000
-3.348305	PAY	-0.000000
-3.575549	STATE	-0.000000
-3.500915	CREDIT	-0.000000
-3.136216	COMPANY	-0.000000
-2.241850	WHAT	-0.000000
-3.437246	HAPPEN	-0.000000
-3.524396	CHECK	-0.000000
-3.575549	COST	-0.000000
-2.893178	ENJOY	-0.000000
-2.521990	YOUR	-0.000000
-3.188604	CLEAN	-0.000000
-3.364695	THOUGHT	-0.000000
-3.223366	GREAT	-0.000000
-3.633541	DEAL	-0.000000
-4.080699	VARIETY	-0.000000
-4.001517	RESTAURANTS	-0.000000
-2.815881	NO	-0.000000
-3.348305	CLOSER	-0.000000
-2.876579	PLEASE	-0.000000
-4.779669	BALANCE	-0.000000
-3.364695	BOOK	-0.000000
-4.302547	NATIVE	-0.000000
-3.549220	TEXAS	-0.000000
-2.649335	SHE	-0.000000
-3.146200	SAID	-0.000000
-3.156419	HIS	-0.000000
-4.177609	MENTIONED	-0.000000
-4.779669	PROMINENTLY	-0.000000
-4.779669	ATTRACTED	-0.000000
-4.779669	CURIOSITY	-0.000000
-4.302547	IT'LL	-0.000000
-3.437246	START	-0.000000
-4.779669	STACKING	-0.000000
-2.575549	UP	-0.000000
-2.792897	FEEL	-0.000000
-3.549220	I'D	-0.000000
-3.478639	JOIN	-0.000000
-3.332511	EAT	-0.000000
-2.514851	GOING	-0.000000
-2.397652	ON	-0.000000
-4.478639	EMERGENCIES	-0.000000
-3.575549	COULDN'T	-0.000000
-3.317271	WHOLE	-0.000000
-3.633541	EXPENSIVE	-0.000000
-3.575549	POLICY	-0.000000
-3.199885	LIVE	-0.000000
-3.317271	COUNTRY	-0.000000
-3.261155	READ	-0.000000
-2.820627	LITTLE	-0.000000
-4.779669	SLIPS	-0.000000
-3.039306	COME	-0.000000
-4.001517	MAIL	-0.000000
-2.966755	COMING	-0.000000
-3.549220	GREW	-0.000000
-4.779669	JERSEY	-0.000000
-3.223366	BRING	-0.000000
-3.524396	WHATEVER	-0.000000
-2.686247	NEED	-0.000000
-4.177609	EARN	-0.000000
-2.722764	MUCH	-0.000000
-3.072098	MONEY	-0.000000
-2.427486	DON'T	-0.000000
-3.348305	BUY	-0.000000
-2.581012	THEM	-0.000000
-3.001517	WAY	-0.000000
-4.478639	CRAFT	-0.000000
-2.437246	ABOUT	-0.000000
-4.779669	RELATIVE	-0.000000
-4.779669	PRECISION	-0.000000
-3.876579	BETWEEN	-0.000000
-4.779669	UNLIKE	-0.000000
-4.177609	PARTS	-0.000000
-2.453333	JUST	-0.000000
-4.080699	QUIT	-0.000000
-4.779669	REHEARSAL	-0.000000
-3.633541	HALF	-0.000000
-3.665725	HOUR	-0.000000
-2.356423	IT'S	-0.000000
-4.779669	BEAUTIFULLY	-0.000000
-3.156419	DONE	-0.000000
-2.463698	AT	-0.000000
-3.700487	LEAST	-0.000000
-3.437246	PARENTS	-0.000000
-2.779669	DID	-0.000000
-3.317271	SAME	-0.000000
-3.665725	TEAMS	-0.000000
-3.080699	WENT	-0.000000
-4.779669	CHAMPIONSHIP	-0.000000
-3.080699	LAST	-0.000000
-3.437246	MIGHT	-0.000000
-3.055393	BETTER	-0.000000
-2.549220	THAT'S	-0.000000
-2.583769	ONE	-0.000000
-3.008817	THING	-0.000000
-4.177609	WISH	-0.000000
-2.512497	GO	-0.000000
-3.876579	WAR	-0.000000
-3.633541	WRONG	-0.000000
-3.700487	THINKING	-0.000000
-4.080699	BUYING	-0.000000
-2.521990	CAN	-0.000000
-4.478639	SKETCH	-0.000000
-2.922336	SOMETHING	-0.000000
-2.220960	FOR	-0.000000
-3.211467	LOOK	-0.000000
-3.779669	TAKES	-0.000000
-4.478639	FOREVER	-0.000000
-3.274519	CALL	-0.000000
-3.417941	THROUGH	-0.000000
-3.223366	HEARD	-0.000000
-4.177609	MONDAY	-0.000000
-3.633541	EVENING	-0.000000
-4.779669	DISLIKE	-0.000000
-4.779669	PEPSI	-0.000000
-4.478639	CANS	-0.000000
-4.478639	FORGOT	-0.000000
-4.302547	HIT	-0.000000
-4.302547	FIXED	-0.000000
-2.441212	WITH	-0.000000
-4.080699	OFFICE	-0.000000
-3.248190	WHICH	-0.000000
-4.478639	LOVELY	-0.000000
-3.136216	PLACE	-0.000000
-4.001517	GROW	-0.000000
-4.779669	SHOOTING	-0.000000
-4.779669	TOLLWAY	-0.000000
-3.235601	MAYBE	-0.000000
-3.199885	FAR	-0.000000
-3.047275	WHO	-0.000000
-3.063665	CITY	-0.000000
-3.665725	FOUND	-0.000000
-3.348305	PLAY	-0.000000
-3.665725	SET	-0.000000
-4.177609	INDUSTRY	-0.000000
-3.633541	TYPE	-0.000000
-3.738276	PLACES	-0.000000
-3.478639	LEAVE	-0.000000
-2.572843	ME	-0.000000
-4.177609	ALONE	-0.000000
-3.364695	WHILE	-0.000000
-2.840149	WERE	-0.000000
-3.575549	LIVING	-0.000000
-2.806541	WANT	-0.000000
-3.288307	SHOW	-0.000000
-4.478639	MISTAKES	-0.000000
-4.779669	INEVITABLE	-0.000000
-3.500915	ONCE	-0.000000
-2.392279	GOOD	-0.000000
-3.381729	FRIENDS	-0.000000
-2.539119	HOW	-0.000000
-2.556952	ALL	-0.000000
-2.707787	WOULD	-0.000000
-4.779669	STEAL	-0.000000
-3.738276	NEWSPAPER	-0.000000
-4.779669	INCIDENTAL	-0.000000
-3.700487	DEPENDS	-0.000000
-3.700487	INTEREST	-0.000000
-4.478639	FORGET	-0.000000
-3.524396	SOMEBODY	-0.000000
-3.457449	NEEDS	-0.000000
-4.302547	WALKED	-0.000000
-3.934571	TWICE	-0.000000
-3.031481	DAY	-0.000000
-3.063665	QUITE	-0.000000
-4.779669	HOT	-0.000000
-3.437246	ENOUGH	-0.000000
-4.302547	BURN	-0.000000
-3.116911	THEN	-0.000000
-4.779669	LOUD	-0.000000
-4.177609	EXPLOSION	-0.000000
-2.904607	I'VE	-0.000000
-3.738276	LIVED	-0.000000
-2.871184	HOME	-0.000000
-3.779669	THIRTY	-0.000000
-4.080699	TERRIBLE	-0.000000
-3.166885	CHOICE	-0.000000
-3.665725	FATHER	-0.000000
-3.876579	LIKES	-0.000000
-3.156419	WATCH	-0.000000
-3.457449	TELEVISION	-0.000000
-2.953594	OTHER	-0.000000
-4.080699	COUNTRIES	-0.000000
-3.779669	TOLD	-0.000000
-3.603577	NORTH	-0.000000
-3.136216	ONLY	-0.000000
-2.704122	AS	-0.000000
-4.478639	RESORT	-0.000000
-4.080699	ESPECIALLY	-0.000000
-3.633541	SINCE	-0.000000
-4.177609	GERMAN	-0.000000
-4.177609	SHEPHERD	-0.000000
-3.332511	STAY	-0.000000
-4.302547	FRESH	-0.000000
-4.478639	TANK	-0.000000
-4.478639	DIRTY	-0.000000
-4.302547	HELPING	-0.000000
-3.116911	HIM	-0.000000
-4.779669	LOCATE	-0.000000
-4.302547	TOYS	-0.000000
-4.177609	LIST	-0.000000
-4.302547	DRINK	-0.000000
-4.779669	SODA	-0.000000
-3.211467	LOOKING	-0.000000
-3.089473	MANY	-0.000000
-3.700487	EMPLOYEES	-0.000000
-3.524396	STORE	-0.000000
-3.166885	SAY	-0.000000
-3.146200	ANYTHING	-0.000000
-4.302547	CHICKEN	-0.000000
-4.080699	RICE	-0.000000
-2.928410	WHERE	-0.000000
-3.211467	DOES	-0.000000
-3.274519	GIVE	-0.000000
-4.478639	INCENTIVE	-0.000000
-4.779669	QUALIFICATIONS	-0.000000
-3.738276	TEACHERS	-0.000000
-4.779669	IGNORE	-0.000000
-4.080699	OTHERS	-0.000000
-3.575549	EVERYBODY	-0.000000
-3.825426	KNOWS	-0.000000
-3.274519	TALKING	-0.000000
-4.779669	RACE	-0.000000
-2.898855	THINGS	-0.000000
-3.223366	MEAN	-0.000000
-3.665725	HAPPENED	-0.000000
-3.738276	UNUSUAL	-0.000000
-4.478639	DISH	-0.000000
-4.779669	KOREA	-0.000000
-4.302547	RESEARCH	-0.000000
-3.146200	EVERYTHING	-0.000000
-4.779669	SPORTY	-0.000000
-3.080699	THERE'S	-0.000000
-3.223366	PROBABLY	-0.000000
-4.177609	NATURAL	-0.000000
-3.500915	NAME	-0.000000
-3.575549	GOES	-0.000000
-2.953594	BUT	-0.000000
-2.830279	POINT	-0.000000
-2.871184	TOO	-0.000000
-3.317271	TALK	-0.000000
-4.779669	NIGHTLY	-0.000000
-4.779669	GUNFIRE	-0.000000
-4.779669	DISCOURAGES	-0.000000
-3.700487	MOSTLY	-0.000000
-4.177609	GIVEN	-0.000000
-3.039306	AWAY	-0.000000
-4.478639	GIFTS	-0.000000
-3.876579	YOU'VE	-0.000000
-3.063665	MADE	-0.000000
-3.665725	CLEAR	-0.000000
-2.750285	KIND	-0.000000
-4.080699	CHANNEL	-0.000000
-4.302547	CHIPS	-0.000000
-4.478639	SALSA	-0.000000
-2.675865	IF	-0.000000
-4.478639	PULL	-0.000000
-4.478639	TRUMP	-0.000000
-2.922336	HAS	-0.000000
-4.779669	COLLUSION	-0.000000
-2.718971	OR	-0.000000
-4.080699	DURING	-0.000000
-4.177609	HOLD	-0.000000
-4.779669	VISIONARY	-0.000000
-4.478639	APPROACH	-0.000000
-3.575549	SUCCESS	-0.000000
-2.940820	NURSE	-0.000000
-3.348305	THIRSTY	-0.000000
-3.700487	ALMOST	-0.000000
-4.779669	WISHES	-0.000000
-3.031481	GUESS	-0.000000
-3.364695	TRYING	-0.000000
-3.274519	USED	-0.000000
-3.063665	BACK	-0.000000
-3.738276	CARS	-0.000000
-3.107571	STILL	-0.000000
-4.779669	MAILINGS	-0.000000
-3.478639	TWENTY	-0.000000
-4.779669	CHARGES	-0.000000
-3.665725	WORTH	-0.000000
-3.665725	TROUBLE	-0.000000
-3.399457	HEAR	-0.000000
-3.417941	VOICE	-0.000000
-4.779669	REGISTER	-0.000000
-3.332511	LET	-0.000000
-3.364695	END	-0.000000
-4.080699	CIVIL	-0.000000
-3.223366	COLLEGE	-0.000000
-3.199885	CHILDREN	-0.000000
-4.779669	AMERICANS	-0.000000
-4.779669	PUSHED	-0.000000
-3.934571	LAND	-0.000000
-3.288307	COMPUTER	-0.000000
-3.603577	HELLO	-0.000000
-3.055393	HELP	-0.000000
-4.177609	MAIN	-0.000000
-4.478639	STARS	-0.000000
-2.788443	GOT	-0.000000
-3.633541	MARRIED	-0.000000
-3.457449	PAPER	-0.000000
-4.001517	SOUND	-0.000000
-3.364695	INTERESTING	-0.000000
-3.381729	WE'VE	-0.000000
-3.457449	ENJOYED	-0.000000
-4.779669	ARMY	-0.000000
-4.779669	SERGEANT	-0.000000
-3.188604	KIDS	-0.000000
-3.248190	ACTUALLY	-0.000000
-2.830279	FROM	-0.000000
-4.302547	CANADA	-0.000000
-4.080699	YORK	-0.000000
-4.302547	DROVE	-0.000000
-4.779669	CAB	-0.000000
-2.865855	WHEN	-0.000000
-4.302547	GRADUATE	-0.000000
-4.478639	STUDENT	-0.000000
-3.549220	MEASURE	-0.000000
-4.478639	HEADS	-0.000000
-3.524396	LOCAL	-0.000000
-4.779669	GOVERMENT	-0.000000
-3.223366	FIND	-0.000000
-3.437246	FUNNY	-0.000000
-3.549220	COURSE	-0.000000
-4.478639	APPROPRIATE	-0.000000
-3.261155	FEW	-0.000000
-3.665725	MINUTES	-0.000000
-4.080699	BEGIN	-0.000000
-3.235601	OUTSIDE	-0.000000
-3.317271	ANOTHER	-0.000000
-2.615316	AM	-0.000000
-2.652564	SOME	-0.000000
-4.302547	NIGHTS	-0.000000
-3.023794	REAL	-0.000000
-3.665725	COLD	-0.000000
-3.274519	DAYS	-0.000000
-4.478639	PAYING	-0.000000
-3.524396	MYSELF	-0.000000
-3.274519	USUALLY	-0.000000
-2.980328	PRETTY	-0.000000
-4.177609	BET	-0.000000
-2.850250	TELL	-0.000000
-3.211467	HUNGRY	-0.000000
-3.575549	SAW	-0.000000
-3.500915	NIGHT	-0.000000
-4.478639	COLLECT	-0.000000
-4.779669	COLLECTING	-0.000000
-4.302547	DUST	-0.000000
-2.940820	HER	-0.000000
-3.417941	DAUGHTER	-0.000000
-3.063665	NEVER	-0.000000
-3.188604	SEEN	-0.000000
-4.302547	RIGHTS	-0.000000
-4.478639	VIOLATED	-0.000000
-3.063665	ALWAYS	-0.000000
-3.031481	SCHOOL	-0.000000
-3.457449	CLOSE	-0.000000
-3.524396	PLEASURE	-0.000000
-4.080699	MEET	-0.000000
-4.779669	ABSENT	-0.000000
-4.779669	CLOUD	-0.000000
-4.478639	EXTERNAL	-0.000000
-4.779669	COMMUNICATION	-0.000000
-3.223366	INTO	-0.000000
-4.478639	EFFECT	-0.000000
-4.302547	IMMEDIATELY	-0.000000
-3.166885	BECAUSE	-0.000000
-4.001517	GUNS	-0.000000
-3.524396	FREE	-0.000000
-4.001517	ASK	-0.000000
-4.478639	QUESTIONS	-0.000000
-3.524396	LUCK	-0.000000
-4.779669	COAT	-0.000000
-4.177609	PAINT	-0.000000
-4.177609	ACTIVE	-0.000000
-3.248190	SURE	-0.000000
-3.457449	HIGH	-0.000000
-4.080699	LUNCH	-0.000000
-3.364695	HE'S	-0.000000
-4.779669	TEENAGER	-0.000000
-4.779669	POINTED	-0.000000
-3.317271	CLASS	-0.000000
-3.825426	CHILD	-0.000000
-3.364695	WHAT'S	-0.000000
-3.665725	MATTER	-0.000000
-3.211467	TODAY	-0.000000
-4.302547	TOY	-0.000000
-4.080699	RID	-0.000000
-3.098427	NICE	-0.000000
-4.779669	TOMATO	-0.000000
-4.478639	PLANT	-0.000000
-3.575549	EXACTLY	-0.000000
-3.417941	BUSINESS	-0.000000
-3.633541	USUAL	-0.000000
-4.302547	SMOKING	-0.000000
-3.166885	STUFF	-0.000000
-3.665725	LOVED	-0.000000
-3.274519	MOVIE	-0.000000
-3.633541	FIELD	-0.000000
-4.177609	TRIPS	-0.000000
-4.478639	ADD	-0.000000
-4.779669	DROPS	-0.000000
-4.779669	EUCALYPTUS	-0.000000
-3.665725	OIL	-0.000000
-2.960125	TAKE	-0.000000
-3.223366	CARE	-0.000000
-4.080699	WORRY	-0.000000
-3.317271	TIRED	-0.000000
-3.934571	SEPARATE	-0.000000
-3.633541	JOY	-0.000000
-3.700487	STICK	-0.000000
-2.910437	ANY	-0.000000
-3.876579	GUYS	-0.000000
-3.072098	AROUND	-0.000000
-4.080699	TOTALLY	-0.000000
-4.478639	TERMS	-0.000000
-4.779669	PSYCHOLOGICAL	-0.000000
-4.302547	IMPACT	-0.000000
-4.177609	SUMMER	-0.000000
-4.302547	EFFICIENT	-0.000000
-3.876579	REPORT	-0.000000
-3.665725	MISS	-0.000000
-3.700487	NUMBER	-0.000000
-3.700487	POINTS	-0.000000
-3.665725	GROUP	-0.000000
-3.478639	OWN	-0.000000
-2.850250	BEEN	-0.000000
-3.524396	TOPIC	-0.000000
-3.478639	BELIEVE	-0.000000
-3.211467	REMEMBER	-0.000000
-4.177609	CANNOT	-0.000000
-3.478639	FULL	-0.000000
-3.302547	HAVEN'T	-0.000000
-3.876579	THEY'VE	-0.000000
-3.633541	CHANGED	-0.000000
-3.199885	BIT	-0.000000
-3.524396	EACH	-0.000000
-4.478639	HISPANIC	-0.000000
-4.302547	PLAYERS	-0.000000
-3.248190	PROBLEM	-0.000000
-4.177609	HIMSELF	-0.000000
-4.177609	RAISE	-0.000000
-4.302547	BIRTHDAY	-0.000000
-3.457449	PERSON	-0.000000
-4.779669	COOLER	-0.000000
-4.478639	BOARD	-0.000000
-4.779669	SUPERVISORS	-0.000000
-4.779669	GATHERED	-0.000000
-4.177609	MEETING	-0.000000
-4.779669	ORGANIZED	-0.000000
-3.934571	MIDDLE	-0.000000
-4.478639	RESIDENTIAL	-0.000000
-3.633541	AREA	-0.000000
-4.478639	LILY	-0.000000
-4.478639	GENERAL	-0.000000
-4.080699	ISSUES	-0.000000
-3.633541	STARTED	-0.000000
-3.665725	WITHOUT	-0.000000
-3.934571	OLDER	-0.000000
-4.478639	ADVICE	-0.000000
-4.779669	SEMI	-0.000000
-4.302547	RETIRED	-0.000000
-3.235601	MOST	-0.000000
-4.478639	SEAT	-0.000000
-4.779669	CLASSICS	-0.000000
-4.478639	PORTLAND	-0.000000
-4.779669	LINCOLN	-0.000000
-4.177609	RIDE	-0.000000
-3.603577	CERTAINLY	-0.000000
-3.223366	FOOD	-0.000000
-4.779669	INTRIGUING	-0.000000
-3.177609	EVEN	-0.000000
-3.738276	BOYS	-0.000000
-4.001517	HELPFUL	-0.000000
-3.779669	BIGGEST	-0.000000
-4.001517	MESS	-0.000000
-3.223366	EVER	-0.000000
-3.633541	BEING	-0.000000
-2.722764	FAMILY	-0.000000
-3.738276	BRINGS	-0.000000
-3.876579	MEN	-0.000000
-4.080699	LEARN	-0.000000
-4.302547	CONTROL	-0.000000
-3.665725	ELSE	-0.000000
-3.825426	SIDE	-0.000000
-3.779669	AWFUL	-0.000000
-3.603577	SOMETIMES	-0.000000
-3.738276	DECISIONS	-0.000000
-3.665725	PUBLIC	-0.000000
-4.478639	SIMPLER	-0.000000
-4.779669	SUITABLE	-0.000000
-4.478639	METHOD	-0.000000
-4.779669	RANK	-0.000000
-4.779669	VALUE	-0.000000
-4.177609	COINS	-0.000000
-3.603577	TEAM	-0.000000
-2.960125	WELL	-0.000000
-3.549220	PICK	-0.000000
-3.700487	PIECE	-0.000000
-3.779669	MOVE	-0.000000
-3.288307	FAITH	-0.000000
-3.080699	DOING	-0.000000
-3.524396	SUCH	-0.000000
-4.478639	TERRIFIC	-0.000000
-2.865855	SEE	-0.000000
-3.934571	ANYBODY	-0.000000
-4.478639	DISPUTE	-0.000000
-4.177609	THANKS	-0.000000
-2.973489	DIDN'T	-0.000000
-4.779669	SAGINAW	-0.000000
-4.302547	FACTS	-0.000000
-4.779669	INEFFICIENT	-0.000000
-4.779669	VIOLENT	-0.000000
-4.478639	CRIMES	-0.000000
-4.779669	PUNISHED	-0.000000
-4.779669	NEGLECT	-0.000000
-3.116911	THESE	-0.000000
-3.665725	CHOICES	-0.000000
-4.779669	SIGNIFICANTLY	-0.000000
-3.500915	SMALL	-0.000000
-4.478639	WIPE	-0.000000
-4.302547	MOUTH	-0.000000
-3.738276	SITUATION	-0.000000
-4.779669	MILK	-0.000000
-4.779669	CARTONS	-0.000000
-3.603577	ROOM	-0.000000
-4.779669	REFRIGERATOR	-0.000000
-3.700487	WOULDN'T	-0.000000
-4.779669	OCTOPUS	-0.000000
-4.779669	STUCK	-0.000000
-4.177609	AEROBICS	-0.000000
-3.288307	WE'RE	-0.000000
-4.779669	GREATEST	-0.000000
-3.261155	FUN	-0.000000
-3.381729	GLASSES	-0.000000
-4.779669	RECYCLABLES	-0.000000
-3.072098	COULD	-0.000000
-3.055393	BY	-0.000000
-4.779669	HUMAN	-0.000000
-4.779669	RESOURCES	-0.000000
-3.665725	FINE	-0.000000
-4.478639	MEXICAN	-0.000000
-4.478639	WASTE	-0.000000
-3.177609	DIFFERENT	-0.000000
-4.478639	SONGS	-0.000000
-3.738276	YOURSELF	-0.000000
-4.779669	EXPLOITING	-0.000000
-4.779669	STEREOTYPES	-0.000000
-4.779669	ACADEMICS	-0.000000
-3.779669	SORT	-0.000000
-4.779669	COUNTY	-0.000000
-3.738276	ONES	-0.000000
-3.825426	DECIDE	-0.000000
-3.700487	AIR	-0.000000
-3.665725	QUALITY	-0.000000
-3.274519	PUT	-0.000000
-4.080699	GARAGE	-0.000000
-4.177609	CRUISE	-0.000000
-3.524396	MAKING	-0.000000
-3.177609	THREE	-0.000000
-4.779669	BREAD	-0.000000
-4.779669	ROLLS	-0.000000
-3.876579	AREAS	-0.000000
-3.876579	UNDER	-0.000000
-3.665725	TESTING	-0.000000
-4.080699	EIGHT	-0.000000
-3.825426	LINE	-0.000000
-3.633541	BASICALLY	-0.000000
-4.779669	APPEAR	-0.000000
-4.478639	PREPARING	-0.000000
-4.302547	NOBODY	-0.000000
-4.478639	APPRECIATE	-0.000000
-4.478639	COMEDY	-0.000000
-3.399457	IMPORTANT	-0.000000
-4.177609	SPORT	-0.000000
-3.288307	FOUR	-0.000000
-3.437246	I'LL	-0.000000
-3.603577	SOCIAL	-0.000000
-4.177609	CHANGES	-0.000000
-3.633541	PAST	-0.000000
-3.779669	TEN	-0.000000
-4.177609	VIDEO	-0.000000
-3.126456	LONG	-0.000000
-3.876579	DEATH	-0.000000
-4.302547	PENALTY	-0.000000
-3.779669	FAN	-0.000000
-4.779669	IDENTIFY	-0.000000
-3.575549	GOVERNMENT	-0.000000
-4.001517	HELPS	-0.000000
-3.738276	BASEBALL	-0.000000
-4.080699	ENGINEER	-0.000000
-4.177609	TRADE	-0.000000
-3.364695	HUNDRED	-0.000000
-3.575549	HOURS	-0.000000
-4.001517	COMMUNITY	-0.000000
-3.700487	SERVICE	-0.000000
-3.603577	COMES	-0.000000
-3.825426	FALL	-0.000000
-3.700487	FAVORITE	-0.000000
-4.478639	PLAYER	-0.000000
-3.825426	YARD	-0.000000
-4.779669	WEARING	-0.000000
-4.779669	SHORTS	-0.000000
-4.478639	CUTE	-0.000000
-4.478639	LAUGH	-0.000000
-3.457449	HUSBAND	-0.000000
-4.779669	CLOGS	-0.000000
-4.177609	TOILET	-0.000000
-3.549220	WORKING	-0.000000
-4.779669	CONDO	-0.000000
-4.080699	KINDS	-0.000000
-3.302547	USE	-0.000000
-4.779669	AUDIENCE	-0.000000
-4.302547	DOOR	-0.000000
-4.478639	AGAINST	-0.000000
-3.603577	TAXES	-0.000000
-3.603577	MOVIES	-0.000000
-4.080699	FARM	-0.000000
-4.779669	HANDICRAFT	-0.000000
-4.478639	CONDITIONING	-0.000000
-4.779669	CHEVROLET	-0.000000
-3.700487	WANTED	-0.000000
-4.478639	NONE	-0.000000
-4.478639	OWNS	-0.000000
-4.177609	LAWN	-0.000000
-4.779669	MOWING	-0.000000
-3.199885	OKAY	-0.000000
-3.478639	IDEA	-0.000000
-4.177609	CHEESE	-0.000000
-4.779669	BARBIES	-0.000000
-4.779669	WELFARE	-0.000000
-4.001517	BENEFITS	-0.000000
-4.478639	ROUNDED	-0.000000
-4.302547	FRONT	-0.000000
-4.779669	SAVE	-0.000000
-3.779669	CAPITAL	-0.000000
-3.738276	COMPANIES	-0.000000
-3.575549	NOTHING	-0.000000
-3.779669	DRIVING	-0.000000
-4.302547	VIETNAM	-0.000000
-4.177609	FANTASTIC	-0.000000
-3.603577	SPEND	-0.000000
-4.779669	SWING	-0.000000
-4.177609	BREAKFAST	-0.000000
-3.700487	BUDGET	-0.000000
-4.080699	SISTER	-0.000000
-4.779669	ZEALOUS	-0.000000
-4.302547	WEREN'T	-0.000000
-3.825426	NURSING	-0.000000
-4.478639	RARELY	-0.000000
-4.779669	SUSCEPTIBLE	-0.000000
-4.478639	INJURY	-0.000000
-3.738276	APPEAL	-0.000000
-4.177609	QUIET	-0.000000
-4.779669	RESTFUL	-0.000000
-3.738276	RECORD	-0.000000
-3.417941	BABY	-0.000000
-3.603577	LISTEN	-0.000000
-4.779669	ROOSEVELT	-0.000000
-4.779669	DREAMS	-0.000000
-4.779669	RECREATION	-0.000000
-4.177609	CENTER	-0.000000
-4.302547	YOUTH	-0.000000
-4.001517	BASIC	-0.000000
-3.825426	MET	-0.000000
-4.080699	EXCELLENT	-0.000000
-4.779669	HONOUR	-0.000000
-4.779669	WHINE	-0.000000
-3.665725	VISION	-0.000000
-3.825426	STARTING	-0.000000
-4.779669	BLURRY	-0.000000
-4.779669	CORNEA	-0.000000
-4.779669	CRUCIAL	-0.000000
-4.177609	ROLE	-0.000000
-4.779669	FOCUSING	-0.000000
-3.199885	EVERY	-0.000000
-4.080699	MEAL	-0.000000
-4.478639	CURRY	-0.000000
-4.478639	UNDERSTANDABLE	-0.000000
-4.478639	OFFERS	-0.000000
-4.177609	FINANCIAL	-0.000000
-4.302547	SERVICES	-0.000000
-3.399457	DOG	-0.000000
-4.779669	CONTRIBUTORS	-0.000000
-4.779669	RETIRING	-0.000000
-4.302547	FLORIDA	-0.000000
-3.738276	FUTURE	-0.000000
-4.080699	THEMSELVES	-0.000000
-3.317271	COUPLE	-0.000000
-3.332511	TIMES	-0.000000
-3.825426	RECYCLING	-0.000000
-3.825426	LATELY	-0.000000
-3.700487	CLOTHES	-0.000000
-3.575549	AVOID	-0.000000
-3.934571	LONGER	-0.000000
-4.779669	LEMON	-0.000000
-4.779669	COMMITTING	-0.000000
-4.080699	POLICE	-0.000000
-4.779669	OVERSIGHT	-0.000000
-4.302547	QUESTION	-0.000000
-3.665725	AMERICAN	-0.000000
-4.478639	LAWS	-0.000000
-3.934571	HATE	-0.000000
-4.080699	CONFUSION	-0.000000
-4.779669	RADICAL	-0.000000
-4.779669	HOMEMAKING	-0.000000
-3.235601	ALSO	-0.000000
-4.779669	COCKY	-0.000000
-4.302547	ONTO	-0.000000
-4.779669	VETERAN	-0.000000
-3.364695	MAKES	-0.000000
-4.478639	HANDS	-0.000000
-4.779669	SUBMARINES	-0.000000
-4.779669	KEEPING	-0.000000
-4.779669	CONCISE	-0.000000
-3.700487	MINE	-0.000000
-4.177609	MIXED	-0.000000
-3.500915	MOTHER	-0.000000
-3.825426	WON'T	-0.000000
-3.934571	GROWING	-0.000000
-4.302547	CHICAGO	-0.000000
-3.876579	APARTMENT	-0.000000
-4.001517	UNTIL	-0.000000
-3.825426	SOLD	-0.000000
-3.738276	CAMPING	-0.000000
-3.779669	SHE'S	-0.000000
-4.478639	OPERA	-0.000000
-3.876579	SUPPOSED	-0.000000
-3.665725	DALLAS	-0.000000
-4.080699	TOP	-0.000000
-4.779669	PHRASES	-0.000000
-4.779669	COINED	-0.000000
-4.478639	USA	-0.000000
-3.603577	AGREE	-0.000000
-4.478639	ASIAN	-0.000000
-3.876579	WHITE	-0.000000
-4.302547	BOYFRIEND	-0.000000
-4.177609	PRESIDENT	-0.000000
-4.779669	TRUSTWORTHY	-0.000000
-3.876579	DIFFICULT	-0.000000
-4.779669	PREDICT	-0.000000
-4.779669	PATTERNS	-0.000000
-4.302547	ESTABLISHED	-0.000000
-3.779669	SAYS	-0.000000
-4.478639	EXPOSURE	-0.000000
-4.779669	THERAPY	-0.000000
-4.302547	HEAVY	-0.000000
-4.779669	CRAFTS	-0.000000
-4.478639	CHINESE	-0.000000
-4.779669	IMAGE	-0.000000
-4.779669	FILTERED	-0.000000
-4.779669	DISTORTED	-0.000000
-3.665725	THANK	-0.000000
-4.779669	GENEROSITY	-0.000000
-4.779669	LOYALTY	-0.000000
-4.478639	SISTERS	-0.000000
-4.779669	MASSACHUSETTS	-0.000000
-3.738276	WIFE	-0.000000
-4.779669	AVAILABLE	-0.000000
-4.080699	YOURS	-0.000000
-3.876579	NEAT	-0.000000
-4.478639	LAWYER	-0.000000
-4.779669	CRIMINALS	-0.000000
-4.478639	STATION	-0.000000
-3.603577	MIND	-0.000000
-4.001517	RUNNING	-0.000000
-3.700487	HEAD	-0.000000
-3.549220	CASE	-0.000000
-3.665725	SIX	-0.000000
-4.779669	FLAGS	-0.000000
-4.177609	SATURDAY	-0.000000
-4.302547	RATES	-0.000000
-4.478639	POUND	-0.000000
-4.001517	PERIOD	-0.000000
-4.302547	MIX	-0.000000
-4.779669	PERFORMED	-0.000000
-4.478639	PETS	-0.000000
-4.302547	SERIOUS	-0.000000
-4.478639	GOLFER	-0.000000
-4.779669	COOPERATIVE	-0.000000
-3.779669	RATHER	-0.000000
-4.779669	COMPETITIVE	-0.000000
-3.603577	EITHER	-0.000000
-3.500915	KEEP	-0.000000
-3.738276	BOUGHT	-0.000000
-4.302547	MEASURING	-0.000000
-4.779669	BAKES	-0.000000
-4.779669	DELICIOUS	-0.000000
-4.478639	EXTRA	-0.000000
-4.779669	WRECKED	-0.000000
-3.738276	WEEKS	-0.000000
-4.779669	PURSUING	-0.000000
-4.177609	DEGREE	-0.000000
-3.107571	DOWN	-0.000000
-4.478639	WINS	-0.000000
-4.779669	PAT	-0.000000
-4.779669	STATIONARY	-0.000000
-4.302547	BIKE	-0.000000
-4.302547	PRIVACY	-0.000000
-4.779669	INVADED	-0.000000
-4.779669	STUDYING	-0.000000
-4.478639	ELECTRONIC	-0.000000
-4.302547	TECHNOLOGY	-0.000000
-4.478639	HOLDS	-0.000000
-4.779669	UNLIMITED	-0.000000
-4.779669	POSSIBILITIES	-0.000000
-3.700487	CATCH	-0.000000
-3.603577	GUY	-0.000000
-4.478639	LIMITS	-0.000000
-4.302547	OUGHT	-0.000000
-4.779669	DESIGNED	-0.000000
-4.779669	POCKETS	-0.000000
-4.779669	LAWYERS	-0.000000
-3.575549	EXPERIENCE	-0.000000
-4.779669	TV'S	-0.000000
-4.779669	SURROGATE	-0.000000
-4.478639	PARENT	-0.000000
-4.478639	RAISING	-0.000000
-4.779669	PRICES	-0.000000
-4.779669	ILLEGAL	-0.000000
-4.779669	WAREHOUSE	-0.000000
-4.302547	RESTAURANT	-0.000000
-4.779669	FOLDER	-0.000000
-3.603577	LOOKS	-0.000000
-3.876579	CUT	-0.000000
-4.302547	REASONS	-0.000000
-4.779669	ROSES	-0.000000
-4.779669	ACCUSED	-0.000000
-4.779669	SPEEDY	-0.000000
-4.177609	TRIAL	-0.000000
-3.235601	YOU'RE	-0.000000
-3.302547	GETTING	-0.000000
-4.302547	LEVEL	-0.000000
-3.575549	VISIT	-0.000000
-4.302547	ENGLAND	-0.000000
-4.177609	NECESSARILY	-0.000000
-4.478639	BLAME	-0.000000
-4.779669	UPDATED	-0.000000
-4.302547	MACHINE	-0.000000
-3.779669	TAKING	-0.000000
-4.478639	NOTICE	-0.000000
-4.478639	RISING	-0.000000
-4.001517	OCCASION	-0.000000
-3.549220	CALLED	-0.000000
-4.478639	PRIME	-0.000000
-4.779669	BESIDE	-0.000000
-4.177609	WISE	-0.000000
-4.779669	NEWSPAPERS	-0.000000
-4.302547	FLOOR	-0.000000
-3.575549	MAY	-0.000000
-3.524396	WAIT	-0.000000
-4.478639	MASS	-0.000000
-4.779669	PRODUCED	-0.000000
-4.478639	SLOW	-0.000000
-3.417941	DOESN'T	-0.000000
-3.738276	SEEM	-0.000000
-4.302547	FRAME	-0.000000
-3.779669	PAID	-0.000000
-3.700487	OFTEN	-0.000000
-4.302547	READY	-0.000000
-3.575549	LEFT	-0.000000
-4.478639	MONITOR	-0.000000
-4.478639	DOCUMENTARY	-0.000000
-4.779669	BOSTON	-0.000000
-4.779669	CELTICS	-0.000000
-4.177609	BASKETBALL	-0.000000
-4.478639	MATERIAL	-0.000000
-4.478639	SKI	-0.000000
-4.478639	LIFT	-0.000000
-4.779669	FLIES	-0.000000
-3.364695	WHY	-0.000000
-4.779669	EXPECT	-0.000000
-3.080699	CAR	-0.000000
-4.478639	OURSELVES	-0.000000
-4.177609	BUILT	-0.000000
-3.633541	TURN	-0.000000
-3.876579	CERTAIN	-0.000000
-3.825426	AMOUNT	-0.000000
-4.302547	SALARY	-0.000000
-3.575549	FRIEND	-0.000000
-4.779669	FISHED	-0.000000
-4.177609	UNITED	-0.000000
-3.825426	STATES	-0.000000
-4.177609	SPEAKING	-0.000000
-4.779669	OVERALL	-0.000000
-3.934571	ACROSS	-0.000000
-4.779669	CONCEPT	-0.000000
-4.302547	ROW	-0.000000
-4.478639	DEDICATED	-0.000000
-3.700487	GIRL	-0.000000
-4.779669	JOYFUL	-0.000000
-4.177609	LOVES	-0.000000
-4.779669	MERMAID	-0.000000
-4.478639	SPEECH	-0.000000
-4.779669	BEDROOM	-0.000000
-4.177609	JUDGE	-0.000000
-4.779669	AIRPORT	-0.000000
-4.478639	IRON	-0.000000
-4.779669	TEE	-0.000000
-4.478639	PROS	-0.000000
-4.779669	CONS	-0.000000
-3.738276	DRUG	-0.000000
-4.779669	PRIOR	-0.000000
-4.779669	HIRING	-0.000000
-4.779669	NUTS	-0.000000
-4.779669	BOLTS	-0.000000
-3.603577	LAW	-0.000000
-4.001517	BAND	-0.000000
-4.177609	PLAYED	-0.000000
-4.779669	ACTORS	-0.000000
-4.177609	WESTERN	-0.000000
-4.779669	SEMESTER	-0.000000
-3.934571	FINALLY	-0.000000
-4.302547	PASSED	-0.000000
-4.080699	WEATHER	-0.000000
-3.549220	NEWS	-0.000000
-4.779669	BABY'S	-0.000000
-4.302547	QUILT	-0.000000
-4.779669	RAINY	-0.000000
-4.080699	HADN'T	-0.000000
-4.779669	UPSET	-0.000000
-3.934571	WAYS	-0.000000
-4.779669	CONVERSIONS	-0.000000
-3.524396	WONDERFUL	-0.000000
-4.779669	CHOCOLATE	-0.000000
-4.080699	LIKED	-0.000000
-4.779669	TURQUOISE	-0.000000
-3.633541	RUN	-0.000000
-4.302547	HOLE	-0.000000
-3.779669	EDUCATION	-0.000000
-3.876579	LUXURY	-0.000000
-4.779669	ITEM	-0.000000
-4.779669	CONTRACTS	-0.000000
-4.779669	MONITORING	-0.000000
-4.478639	SLEEPING	-0.000000
-3.603577	LESS	-0.000000
-3.500915	MORNING	-0.000000
-4.779669	SPONSORS	-0.000000
-4.478639	PICTURE	-0.000000
-4.478639	MAGAZINE	-0.000000
-4.478639	RUSSIA	-0.000000
-4.779669	THREAT	-0.000000
-4.478639	THROW	-0.000000
-3.876579	ORIGINALLY	-0.000000
-4.080699	ART	-0.000000
-4.080699	INSURANCE	-0.000000
-4.478639	DUE	-0.000000
-3.575549	GOODBYE	-0.000000
-4.779669	FREEZING	-0.000000
-3.934571	WINTER	-0.000000
-4.177609	MOMENT	-0.000000
-3.633541	SELL	-0.000000
-4.478639	HAPPIER	-0.000000
-4.080699	MONTHS	-0.000000
-4.779669	JEEZ	-0.000000
-4.779669	CHANCES	-0.000000
-4.779669	STABLE	-0.000000
-4.779669	PONIES	-0.000000
-4.779669	POVERTY	-0.000000
-4.779669	BOLD	-0.000000
-4.779669	INNOVATION	-0.000000
-4.302547	ANDROID	-0.000000
-4.779669	DESCRIBING	-0.000000
-4.478639	CONFLICT	-0.000000
-4.177609	SHORT	-0.000000
-4.478639	VERDICT	-0.000000
-4.302547	CAUSE	-0.000000
-4.779669	REPLACING	-0.000000
-4.302547	HASN'T	-0.000000
-4.779669	FRIENDLY	-0.000000
-4.779669	OUTDOOR	-0.000000
-4.779669	COUSINS	-0.000000
-4.478639	JURORS	-0.000000
-4.478639	PUSHING	-0.000000
-4.779669	FEED	-0.000000
-4.478639	CATFISH	-0.000000
-4.779669	ACCOMPLISHED	-0.000000
-4.177609	VACATION	-0.000000
-3.665725	PROGRAM	-0.000000
-3.700487	ANYMORE	-0.000000
-3.437246	TRY	-0.000000
-4.080699	WHETHER	-0.000000
-4.080699	SCIENCE	-0.000000
-4.478639	FICTION	-0.000000
-4.779669	FANTASY	-0.000000
-4.478639	ABOVE	-0.000000
-4.478639	OH	-0.000000
-4.080699	WEAR	-0.000000
-4.779669	SKIRTS	-0.000000
-4.779669	BLOUSES	-0.000000
-3.665725	SOUNDS	-0.000000
-4.779669	UNREASONABLE	-0.000000
-4.302547	PERSONAL	-0.000000
-4.478639	DESK	-0.000000
-4.779669	TIN	-0.000000
-4.478639	FOIL	-0.000000
-4.478639	MATCH	-0.000000
-4.478639	BOXES	-0.000000
-4.779669	UNATTENDED	-0.000000
-4.478639	GRASS	-0.000000
-4.779669	GREENER	-0.000000
-4.302547	ANSWER	-0.000000
-4.779669	IRRELEVANT	-0.000000
-4.779669	DRESSES	-0.000000
-4.779669	PUPPY	-0.000000
-4.080699	FOLLOW	-0.000000
-4.478639	CLOSELY	-0.000000
-4.779669	WOUND	-0.000000
-4.478639	WRITING	-0.000000
-4.779669	LETTER	-0.000000
-4.302547	VEGETABLES	-0.000000
-4.779669	LICENSE	-0.000000
-4.779669	REVOKED	-0.000000
-4.080699	TREES	-0.000000
-3.779669	THOUSAND	-0.000000
-3.575549	MILES	-0.000000
-4.779669	DETERMINED	-0.000000
-4.478639	PINPOINT	-0.000000
-4.779669	WOOD	-0.000000
-4.478639	DRIVER	-0.000000
-4.302547	SHOP	-0.000000
-4.779669	CLOSES	-0.000000
-4.779669	BRIEFLY	-0.000000
-3.603577	MOVED	-0.000000
-4.302547	BEACH	-0.000000
-4.302547	ITALIAN	-0.000000
-3.603577	FELT	-0.000000
-4.779669	SORRY	-0.000000
-4.478639	FAMILY'S	-0.000000
-4.478639	SHE'LL	-0.000000
-3.876579	TALKED	-0.000000
-4.779669	BICYCLE	-0.000000
-4.177609	INSTEAD	-0.000000
-4.302547	PRESENT	-0.000000
-4.779669	HOPEFULLY	-0.000000
-4.779669	PESTICIDES	-0.000000
-4.779669	POISONOUS	-0.000000
-4.177609	STEP	-0.000000
-4.080699	NINE	-0.000000
-3.825426	LIVES	-0.000000
-4.478639	CALIFORNIA	-0.000000
-4.779669	SEQUOIA	-0.000000
-3.417941	TOGETHER	-0.000000
-4.779669	SIDES	-0.000000
-4.779669	COIN	-0.000000
-3.524396	THOUGH	-0.000000
-4.177609	INSIDE	-0.000000
-4.302547	PROJECT	-0.000000
-3.633541	COOK	-0.000000
-4.478639	ROUND	-0.000000
-4.779669	MANUFACTURER	-0.000000
-4.478639	COLLEGES	-0.000000
-4.779669	BRISKET	-0.000000
-4.779669	ROAST	-0.000000
-3.825426	VISUAL	-0.000000
-4.779669	LEARNER	-0.000000
-3.876579	VOTE	-0.000000
-3.364695	AGAIN	-0.000000
-4.177609	MEANS	-0.000000
-4.080699	CAREFUL	-0.000000
-4.478639	SENTENCED	-0.000000
-4.080699	REASON	-0.000000
-4.001517	CATS	-0.000000
-4.779669	ENERGY	-0.000000
-3.738276	LIGHT	-0.000000
-4.302547	RADIO	-0.000000
-4.080699	ODD	-0.000000
-4.779669	PERSONALITY	-0.000000
-4.779669	CONTINENTAL	-0.000000
-4.001517	MAGAZINES	-0.000000
-4.779669	BITTERSWEET	-0.000000
-4.779669	MICROSCOPIC	-0.000000
-4.177609	ANYWHERE	-0.000000
-3.665725	TWELVE	-0.000000
-4.001517	REGULAR	-0.000000
-3.825426	TRASH	-0.000000
-4.779669	DARNED	-0.000000
-4.779669	PROGRESSIVE	-0.000000
-3.825426	WORKS	-0.000000
-3.633541	EVERYONE	-0.000000
-4.302547	BRAKES	-0.000000
-4.779669	REPLACED	-0.000000
-4.779669	MISTREAT	-0.000000
-4.478639	WEIGHTS	-0.000000
-4.080699	FISH	-0.000000
-4.779669	CHUNKS	-0.000000
-4.779669	DIP	-0.000000
-4.779669	FONDUE	-0.000000
-4.177609	WHENEVER	-0.000000
-4.478639	WIN	-0.000000
-4.779669	PLAYOFFS	-0.000000
-4.478639	MINIATURE	-0.000000
-4.779669	GOLFING	-0.000000
-4.080699	SEVERAL	-0.000000
-4.478639	BUGS	-0.000000
-4.478639	SOMEHOW	-0.000000
-3.934571	GOTTEN	-0.000000
-3.302547	COMFORTABLE	-0.000000
-3.700487	LOOKED	-0.000000
-4.478639	GUIDE	-0.000000
-4.302547	CONCLUSIONS	-0.000000
-4.779669	QUEEN	-0.000000
-4.779669	WINNERS	-0.000000
-3.779669	SECOND	-0.000000
-4.302547	GRADE	-0.000000
-4.001517	HEART	-0.000000
-3.603577	LET'S	-0.000000
-3.738276	CARDS	-0.000000
-4.779669	PROTECTS	-0.000000
-4.779669	ACID	-0.000000
-4.779669	CORROSION	-0.000000
-4.302547	GARDEN	-0.000000
-4.478639	ENDED	-0.000000
-3.700487	WATCHING	-0.000000
-4.080699	TYPES	-0.000000
-4.779669	PERSON'S	-0.000000
-4.080699	BUILDING	-0.000000
-4.478639	OWNER'S	-0.000000
-4.177609	RESPONSIBILITY	-0.000000
-4.779669	DECENT	-0.000000
-4.478639	ATTENTION	-0.000000
-3.549220	YET	-0.000000
-3.779669	KNOWN	-0.000000
-4.779669	CHAIN	-0.000000
-4.302547	CAMPED	-0.000000
-3.934571	TAKEN	-0.000000
-4.478639	VACATIONS	-0.000000
-3.549220	BEST	-0.000000
-4.177609	COMMENTS	-0.000000
-4.779669	FIRE	-0.000000
-4.478639	AVOIDING	-0.000000
-4.478639	LOAN	-0.000000
-4.478639	DEBT	-0.000000
-4.478639	SKIRT	-0.000000
-4.779669	BLOUSE	-0.000000
-4.478639	SUIT	-0.000000
-4.080699	DRESS	-0.000000
-4.779669	HOBBY	-0.000000
-4.080699	GROUND	-0.000000
-3.457449	BOY	-0.000000
-4.177609	FELL	-0.000000
-3.665725	CRIME	-0.000000
-3.665725	PROBLEMS	-0.000000
-3.934571	EXPECTED	-0.000000
-4.302547	HERS	-0.000000
-3.779669	FIFTEEN	-0.000000
-4.302547	FEET	-0.000000
-4.779669	WIDE	-0.000000
-4.779669	ADVANTAGE	-0.000000
-4.302547	BEAUTIFUL	-0.000000
-4.177609	CAUGHT	-0.000000
-4.779669	INNOCENT	-0.000000
-4.779669	LINUX	-0.000000
-4.302547	BUFF	-0.000000
-4.080699	SPECIAL	-0.000000
-4.779669	REFINERY	-0.000000
-4.779669	SHUT	-0.000000
-4.302547	ENGINE	-0.000000
-3.603577	EASIER	-0.000000
-4.478639	SUMMERTIME	-0.000000
-4.302547	TRAVEL	-0.000000
-3.934571	YOU'LL	-0.000000
-4.177609	FACILITIES	-0.000000
-4.177609	WORST	-0.000000
-3.524396	ABLE	-0.000000
-4.177609	PARTICULARLY	-0.000000
-4.478639	THINKS	-0.000000
-3.825426	TOWN	-0.000000
-3.549220	DOLLARS	-0.000000
-4.177609	SCARY	-0.000000
-3.934571	SEASON	-0.000000
-4.779669	MIAMI	-0.000000
-4.177609	ANYWAY	-0.000000
-4.478639	EFFECTS	-0.000000
-4.001517	MINUTE	-0.000000
-4.779669	COMPARED	-0.000000
-4.478639	FLEXIBLE	-0.000000
-4.302547	BAG	-0.000000
-4.779669	GROCERIES	-0.000000
-3.934571	FAVOURITE	-0.000000
-4.302547	EFFORT	-0.000000
-4.478639	FAMILIAR	-0.000000
-4.779669	SATISFIED	-0.000000
-4.177609	RAIN	-0.000000
-4.779669	CONSCIENTIOUS	-0.000000
-3.825426	UNDERSTAND	-0.000000
-3.738276	LATE	-0.000000
-4.478639	CONTACT	-0.000000
-4.478639	ATTIC	-0.000000
-4.779669	ELECTRIC	-0.000000
-4.779669	CLEANED	-0.000000
-4.302547	RECENTLY	-0.000000
-4.478639	COURT	-0.000000
-4.779669	GRAYING	-0.000000
-4.302547	AMERICA	-0.000000
-4.302547	IMAGINE	-0.000000
-4.177609	SPENDING	-0.000000
-4.302547	SURPRISED	-0.000000
-4.779669	CONSCIOUS	-0.000000
-4.478639	BREATHING	-0.000000
-3.876579	SAN	-0.000000
-4.080699	ANTONIO	-0.000000
-3.700487	FACT	-0.000000
-4.302547	VIRGINIA	-0.000000
-4.478639	CLAY	-0.000000
-4.302547	EMPLOYMENT	-0.000000
-4.478639	CREAM	-0.000000
-4.779669	SAUCE	-0.000000
-4.177609	POUR	-0.000000
-4.779669	FORM	-0.000000
-4.302547	AMAZING	-0.000000
-3.934571	CASUALTIES	-0.000000
-4.478639	ICE	-0.000000
-4.302547	WARM	-0.000000
-4.779669	LUCKILY	-0.000000
-4.478639	KANSAS	-0.000000
-3.665725	SPORTS	-0.000000
-4.478639	SECTION	-0.000000
-4.779669	PUSH	-0.000000
-4.302547	RECYCLE	-0.000000
-4.080699	COVERAGE	-0.000000
-4.779669	LOCATION	-0.000000
-4.779669	FARTHEST	-0.000000
-4.302547	DEPRESSING	-0.000000
-4.080699	CRIMINAL	-0.000000
-4.779669	ADOLESCENTS	-0.000000
-4.478639	OCTOBER	-0.000000
-4.779669	OPTIONS	-0.000000
-3.738276	DIFFERENCE	-0.000000
-4.779669	NOTES	-0.000000
-4.779669	ILLUSTRATED	-0.000000
-4.177609	SHOT	-0.000000
-4.779669	PASTA	-0.000000
-4.001517	ENJOYING	-0.000000
-4.779669	CONTRACT	-0.000000
-4.302547	TV	-0.000000
-4.478639	BOX	-0.000000
-4.779669	SHAME	-0.000000
-4.779669	TALKER	-0.000000
-4.779669	DECEMBER	-0.000000
-4.779669	JANUARY	-0.000000
-3.665725	POWER	-0.000000
-4.779669	PIT	-0.000000
-4.779669	RATIO	-0.000000
-4.302547	PRESS	-0.000000
-4.779669	CONFERENCE	-0.000000
-4.779669	EXECUTION	-0.000000
-4.478639	VISIBLE	-0.000000
-4.478639	AIDS	-0.000000
-4.779669	EPIDEMIC	-0.000000
-4.779669	BUCKS	-0.000000
-3.603577	MONTH	-0.000000
-3.934571	FORWARD	-0.000000
-4.478639	CROWD	-0.000000
-4.779669	STUNG	-0.000000
-4.779669	OBAMA	-0.000000
-4.478639	VETO	-0.000000
-4.779669	PATRIOTS	-0.000000
-4.779669	WONDERED	-0.000000
-3.665725	GETS	-0.000000
-4.779669	MARK	-0.000000
-4.177609	DISEASE	-0.000000
-4.302547	HOPING	-0.000000
-4.478639	ATE	-0.000000
-4.779669	FEAST	-0.000000
-4.177609	CLOSURE	-0.000000
-3.779669	JURY	-0.000000
-4.478639	GENERALLY	-0.000000
-4.001517	ORDER	-0.000000
-4.779669	PIZZA	-0.000000
-3.825426	WOMEN	-0.000000
-4.779669	ARIZONA	-0.000000
-4.779669	EXPRESSING	-0.000000
-4.779669	FRUSTRATION	-0.000000
-4.080699	CONCERNED	-0.000000
-4.779669	TRAINING	-0.000000
-3.934571	ISN'T	-0.000000
-4.779669	SPARE	-0.000000
-4.478639	MONEY'S	-0.000000
-4.080699	TEACHER	-0.000000
-4.779669	BABIES	-0.000000
-4.779669	ROBBED	-0.000000
-4.779669	GUNPOINT	-0.000000
-4.001517	WALKING	-0.000000
-4.080699	LOTS	-0.000000
-4.779669	AFFECTION	-0.000000
-3.738276	MEASURES	-0.000000
-4.779669	SHOWER	-0.000000
-4.779669	DRESSED	-0.000000
-3.700487	WASN'T	-0.000000
-3.779669	TAX	-0.000000
-4.779669	UPGRADE	-0.000000
-4.302547	LARGER	-0.000000
-4.779669	FAVORITES	-0.000000
-4.302547	FIX	-0.000000
-3.825426	WORLD	-0.000000
-4.779669	BETA	-0.000000
-3.575549	EARLY	-0.000000
-4.302547	ACCESS	-0.000000
-4.779669	CONSISTENT	-0.000000
-4.779669	AID	-0.000000
-4.779669	CIVILIZED	-0.000000
-4.080699	SOCIETY	-0.000000
-4.302547	SURVIVE	-0.000000
-4.302547	WILD	-0.000000
-4.779669	SOUTHWEST	-0.000000
-4.478639	MEDICAL	-0.000000
-4.177609	PIANO	-0.000000
-4.779669	SHORTLY	-0.000000
-4.779669	SEATS	-0.000000
-4.478639	MARCH	-0.000000
-4.779669	FIFTEENTH	-0.000000
-4.478639	PREPARED	-0.000000
-4.779669	EXPENDITURE	-0.000000
-4.779669	OPTION	-0.000000
-4.177609	CONSIDER	-0.000000
-3.700487	WALK	-0.000000
-3.700487	BOOKS	-0.000000
-4.478639	DRESSING	-0.000000
-4.779669	VINEGAR	-0.000000
-4.779669	ROSS	-0.000000
-4.779669	EXECUTE	-0.000000
-4.779669	SUBCONSCIOUSLY	-0.000000
-4.779669	GRADUATED	-0.000000
-4.001517	NINETEEN	-0.000000
-4.080699	EIGHTY	-0.000000
-4.779669	HILL	-0.000000
-4.080699	FIT	-0.000000
-4.779669	CIRCUMSTANCE	-0.000000
-4.779669	CUPS	-0.000000
-4.779669	FLOUR	-0.000000
-4.302547	ACCEPT	-0.000000
-3.779669	LATER	-0.000000
-4.478639	LOYAL	-0.000000
-4.302547	PLAN	-0.000000
-3.876579	AHEAD	-0.000000
-4.779669	WANDER	-0.000000
-3.934571	CHURCH	-0.000000
-4.302547	FIGURED	-0.000000
-4.779669	FUSED	-0.000000
-4.080699	TONIGHT	-0.000000
-4.302547	PET	-0.000000
-3.779669	NOISE	-0.000000
-4.779669	OVERTHROW	-0.000000
-3.665725	EXERCISE	-0.000000
-4.478639	GENERATION	-0.000000
-4.779669	NOVELS	-0.000000
-4.779669	SHIFT	-0.000000
-4.478639	FLAT	-0.000000
-4.478639	HOLY	-0.000000
-4.779669	GUARANTEE	-0.000000
-4.779669	DISAPPOINTED	-0.000000
-4.302547	ENVIRONMENT	-0.000000
-4.779669	CONTAINER	-0.000000
-4.177609	WEIRD	-0.000000
-4.779669	EXIST	-0.000000
-4.302547	PRISON	-0.000000
-4.779669	ANNOUNCE	-0.000000
-4.177609	ITS	-0.000000
-4.080699	WORDS	-0.000000
-4.779669	TEENAGERS	-0.000000
-4.478639	BANNED	-0.000000
-4.177609	EUROPE	-0.000000
-3.825426	WHO'S	-0.000000
-4.779669	KISS	-0.000000
-4.302547	YOU'D	-0.000000
-4.177609	SEVENTY	-0.000000
-4.478639	CENTIMETERS	-0.000000
-4.177609	POPULAR	-0.000000
-4.478639	OVERNIGHT	-0.000000
-4.177609	REST	-0.000000
-4.478639	PRACTICE	-0.000000
-4.302547	PERFECT	-0.000000
-3.700487	VIEW	-0.000000
-4.302547	DEPENDING	-0.000000
-4.779669	SCHEDULE	-0.000000
-3.825426	DRIVE	-0.000000
-4.302547	EXACT	-0.000000
-4.779669	MOAN	-0.000000
-4.779669	OFFER	-0.000000
-4.478639	FINDING	-0.000000
-4.478639	HOSPITAL	-0.000000
-4.478639	JULY	-0.000000
-4.177609	ABSOLUTELY	-0.000000
-4.478639	REWARDING	-0.000000
-4.302547	BLOCKS	-0.000000
-4.779669	BEAVERS	-0.000000
-4.779669	BEND	-0.000000
-4.177609	EAST	-0.000000
-4.478639	PITTSBURGH	-0.000000
-4.779669	DOUBLE	-0.000000
-4.001517	MAJOR	-0.000000
-4.478639	AGREED	-0.000000
-4.302547	PENNSYLVANIA	-0.000000
-4.177609	SOUTH	-0.000000
-4.478639	INCREASE	-0.000000
-4.779669	APPROVED	-0.000000
-4.779669	ALPHABET	-0.000000
-4.478639	DEVELOPED	-0.000000
-4.478639	DAILY	-0.000000
-4.080699	GIRLS	-0.000000
-4.177609	ASKED	-0.000000
-4.779669	PARTICIPATE	-0.000000
-4.302547	HIGHER	-0.000000
-4.779669	SKIM	-0.000000
-4.080699	TOUGH	-0.000000
-4.779669	BUCK	-0.000000
-4.302547	DANGEROUS	-0.000000
-4.779669	PARAKEETS	-0.000000
-4.779669	STRONG	-0.000000
-4.779669	LEADER	-0.000000
-4.001517	OCCASIONALLY	-0.000000
-4.177609	CONVERSATION	-0.000000
-4.779669	TURNS	-0.000000
-4.779669	ARGUMENT	-0.000000
-4.302547	THEY'LL	-0.000000
-4.779669	SATELLITE	-0.000000
-4.779669	CAMPUS	-0.000000
-4.779669	INDOOR	-0.000000
-4.478639	OPINIONS	-0.000000
-4.779669	FILLING	-0.000000
-4.302547	FORMS	-0.000000
-4.478639	LEAVING	-0.000000
-4.478639	PAGES	-0.000000
-4.177609	POLITICAL	-0.000000
-4.001517	FAST	-0.000000
-4.779669	ANNOY	-0.000000
-4.478639	GERMANY	-0.000000
-3.825426	FAMILIES	-0.000000
-4.177609	CALLS	-0.000000
-3.934571	ARTS	-0.000000
-4.478639	COLLAGE	-0.000000
-4.779669	TOLERANCE	-0.000000
-4.478639	BEHAVIOR	-0.000000
-4.478639	VIEWS	-0.000000
-3.934571	SUBJECT	-0.000000
-4.779669	DIAGNOSED	-0.000000
-4.779669	LEUKEMIA	-0.000000
-4.779669	EXECUTING	-0.000000
-4.478639	BASIS	-0.000000
-4.302547	KINDERGARTEN	-0.000000
-4.302547	SEEING	-0.000000
-4.080699	ANYONE	-0.000000
-4.478639	INJURED	-0.000000
-4.302547	GIVING	-0.000000
-3.700487	SAYING	-0.000000
-4.302547	FAIRLY	-0.000000
-3.825426	LARGE	-0.000000
-4.302547	LIBERAL	-0.000000
-4.779669	CHARGED	-0.000000
-4.302547	MURDER	-0.000000
-4.302547	RESULT	-0.000000
-4.478639	TEST	-0.000000
-4.779669	NEGATIVE	-0.000000
-4.478639	AVERAGE	-0.000000
-4.779669	INTELLIGENCE	-0.000000
-4.478639	PHYSICAL	-0.000000
-4.779669	RUIN	-0.000000
-4.478639	ELSE'S	-0.000000
-4.302547	AVOIDED	-0.000000
-4.478639	EVIDENCE	-0.000000
-4.779669	SIBLINGS	-0.000000
-4.779669	BROUGHT	-0.000000
-4.779669	SHADOW	-0.000000
-4.779669	DOUBT	-0.000000
-4.478639	REACH	-0.000000
-4.478639	EMOTIONAL	-0.000000
-4.779669	PRACTICAL	-0.000000
-4.080699	SHOULDN'T	-0.000000
-4.779669	PENALTIES	-0.000000
-4.779669	FINES	-0.000000
-3.934571	PUNISHMENT	-0.000000
-4.779669	VOLUNTARILY	-0.000000
-3.738276	SOMEWHERE	-0.000000
-4.779669	FASCINATED	-0.000000
-4.177609	WIND	-0.000000
-4.779669	CHILL	-0.000000
-4.478639	SMELL	-0.000000
-4.302547	HAPPY	-0.000000
-4.779669	HIKING	-0.000000
-4.478639	WON	-0.000000
-4.302547	DAMAGE	-0.000000
-4.080699	RECIPE	-0.000000
-4.478639	PROMISED	-0.000000
-4.779669	LIPS	-0.000000
-4.779669	BEGUN	-0.000000
-4.080699	LEARNING	-0.000000
-4.779669	ADDS	-0.000000
-4.478639	ADVOCATE	-0.000000
-4.478639	HOMELESS	-0.000000
-4.779669	SLAP	-0.000000
-4.478639	KNOWING	-0.000000
-4.779669	REGRET	-0.000000
-4.478639	JUNK	-0.000000
-4.080699	ANNOYING	-0.000000
-4.779669	REMARRIED	-0.000000
-4.177609	GAMES	-0.000000
-4.779669	SANG	-0.000000
-4.779669	CHOIR	-0.000000
-4.779669	DISCOVERED	-0.000000
-4.779669	MUSICALS	-0.000000
-4.302547	BLOG	-0.000000
-3.549220	KNEW	-0.000000
-4.779669	RARITY	-0.000000
-4.779669	JUSTIFY	-0.000000
-4.001517	FAVOR	-0.000000
-4.302547	DOGS	-0.000000
-4.779669	TURNING	-0.000000
-4.779669	CROP	-0.000000
-4.177609	KILLED	-0.000000
-4.478639	BIRDS	-0.000000
-4.478639	REUNION	-0.000000
-4.177609	DECIDED	-0.000000
-4.779669	IMPOSE	-0.000000
-4.779669	SPOILER	-0.000000
-4.478639	ALERT	-0.000000
-4.779669	AMAZES	-0.000000
-4.177609	COWBOYS	-0.000000
-4.478639	AUTO	-0.000000
-4.779669	MATERNITY	-0.000000
-4.779669	BROKEN	-0.000000
-3.876579	ALONG	-0.000000
-4.779669	FANTASTICALLY	-0.000000
-4.779669	ROSE	-0.000000
-4.779669	BOSS	-0.000000
-4.177609	FREQUENTLY	-0.000000
-4.779669	EXPLOITED	-0.000000
-4.080699	SCHOOLS	-0.000000
-4.177609	SAFE	-0.000000
-4.478639	THEATER	-0.000000
-4.779669	THERAPIST	-0.000000
-4.779669	TELECOMMUNICATIONS	-0.000000
-4.779669	STYLING	-0.000000
-4.779669	KIDS'	-0.000000
-4.080699	CONCLUSION	-0.000000
-4.779669	LEISURE	-0.000000
-4.302547	PURCHASE	-0.000000
-4.779669	EXPONENTIALLY	-0.000000
-4.080699	WORSE	-0.000000
-4.478639	SHOOT	-0.000000
-4.302547	GUN	-0.000000
-4.302547	VIOLENCE	-0.000000
-4.779669	CAFFEINE	-0.000000
-4.779669	AWAKE	-0.000000
-4.302547	VOTED	-0.000000
-4.779669	SEXIEST	-0.000000
-4.779669	ACTOR	-0.000000
-4.478639	EDITOR	-0.000000
-4.478639	WRITER	-0.000000
-4.080699	GLAD	-0.000000
-4.779669	DEBTS	-0.000000
-4.080699	INVOLVED	-0.000000
-4.177609	EQUATION	-0.000000
-4.478639	ENVISIONED	-0.000000
-4.177609	DEPARTMENT	-0.000000
-4.779669	INFRASTRUCTURE	-0.000000
-4.779669	ULTIMATE	-0.000000
-4.779669	MAKER	-0.000000
-4.779669	TOTALED	-0.000000
-4.302547	KID	-0.000000
-3.738276	SNOW	-0.000000
-3.934571	FIFTY	-0.000000
-4.478639	SUNDAY	-0.000000
-4.478639	MISSES	-0.000000
-4.779669	VEGETARIANS	-0.000000
-4.478639	VOTING	-0.000000
-4.779669	SOONER	-0.000000
-4.080699	RIDICULOUS	-0.000000
-4.478639	UPPER	-0.000000
-4.302547	BODY	-0.000000
-4.001517	CURRENT	-0.000000
-4.080699	EVENTS	-0.000000
-4.779669	MOON	-0.000000
-4.478639	WATCHED	-0.000000
-4.080699	FOOTBALL	-0.000000
-4.779669	ANTS	-0.000000
-4.779669	CRAWLING	-0.000000
-4.779669	LEGS	-0.000000
-4.478639	CANDY	-0.000000
-4.080699	DESPERATE	-0.000000
-4.302547	SILLY	-0.000000
-4.177609	DESTROYED	-0.000000
-4.779669	BUDGETING	-0.000000
-4.779669	SCORING	-0.000000
-4.779669	HAIRS	-0.000000
-4.302547	REPORTED	-0.000000
-4.080699	CONTINUE	-0.000000
-4.779669	VEIN	-0.000000
-4.779669	BODY'S	-0.000000
-3.738276	SYSTEM	-0.000000
-4.779669	TRANSFERRED	-0.000000
-4.779669	PRODUCES	-0.000000
-4.302547	THIRTEEN	-0.000000
-4.478639	MENTAL	-0.000000
-4.478639	ECONOMIC	-0.000000
-4.779669	BENEFIT	-0.000000
-3.700487	TRIED	-0.000000
-4.478639	SEND	-0.000000
-4.302547	VISITING	-0.000000
-4.779669	SITTER	-0.000000
-4.177609	ISSUE	-0.000000
-4.779669	POISON	-0.000000
-3.738276	WORKED	-0.000000
-4.779669	HOTELS	-0.000000
-4.177609	SPENT	-0.000000
-3.665725	YOUNG	-0.000000
-4.779669	SCHOLARSHIP	-0.000000
-4.779669	DRAMATIC	-0.000000
-4.080699	ENJOYABLE	-0.000000
-4.302547	BEAT	-0.000000
-4.779669	RESPONSIBILITIES	-0.000000
-4.779669	SIXTIES	-0.000000
-4.779669	ACCURATE	-0.000000
-4.177609	DUTY	-0.000000
-3.575549	READING	-0.000000
-4.478639	POST	-0.000000
-4.302547	DARN	-0.000000
-4.177609	ILLUSION	-0.000000
-4.779669	TEDIOUS	-0.000000
-4.779669	INSPECTIONS	-0.000000
-4.779669	BEANS	-0.000000
-3.876579	NEAR	-0.000000
-4.779669	PLANTS	-0.000000
-4.779669	UPSTAIRS	-0.000000
-4.779669	SIMPLIFIED	-0.000000
-4.302547	AFRAID	-0.000000
-4.478639	HOSPITALS	-0.000000
-4.779669	PLANNERS	-0.000000
-4.779669	EMBARRASSING	-0.000000
-4.478639	FOLLOWING	-0.000000
-4.779669	INFLATION	-0.000000
-4.779669	PROPERLY	-0.000000
-4.478639	CHALLENGE	-0.000000
-4.779669	WANTING	-0.000000
-4.478639	ROUGH	-0.000000
-4.080699	BUSY	-0.000000
-4.302547	WE'LL	-0.000000
-4.779669	SUCK	-0.000000
-4.177609	DIRECTION	-0.000000
-4.177609	CHRISTMAS	-0.000000
-4.478639	SPIRIT	-0.000000
-4.478639	TREAT	-0.000000
-4.779669	INCLUDING	-0.000000
-4.478639	RURAL	-0.000000
-4.478639	DISTRICTS	-0.000000
-4.779669	EXPERT	-0.000000
-4.779669	PATTED	-0.000000
-4.779669	POCKET	-0.000000
-4.080699	PERCENT	-0.000000
-4.177609	RED	-0.000000
-4.478639	BLUE	-0.000000
-4.478639	STRUCTURE	-0.000000
-4.779669	AL	-0.000000
-4.779669	CAPONE	-0.000000
-4.779669	BROTHERS	-0.000000
-4.779669	FEMALES	-0.000000
-4.779669	HOUSES	-0.000000
-4.779669	SINKING	-0.000000
-4.478639	ARTIST	-0.000000
-4.779669	STATEMENT	-0.000000
-4.779669	INVALID	-0.000000
-4.779669	DRAFTING	-0.000000
-4.302547	COLORADO	-0.000000
-4.779669	MISSOURI	-0.000000
-4.779669	BOTHERED	-0.000000
-4.779669	OBVIOUS	-0.000000
-4.779669	CELEBRATION	-0.000000
-4.779669	RELY	-0.000000
-4.779669	PRIMARILY	-0.000000
-4.779669	TRAIN	-0.000000
-4.779669	FELLOWSHIPS	-0.000000
-4.177609	WASHINGTON	-0.000000
-4.779669	SUMMARY	-0.000000
-4.779669	HOMOSEXUALS	-0.000000
-4.779669	GAYS	-0.000000
-4.779669	NEIGHBOR	-0.000000
-4.080699	STREET	-0.000000
-4.779669	COACH	-0.000000
-4.779669	RUINED	-0.000000
-4.177609	TRAFFIC	-0.000000
-4.779669	ASSOCIATION	-0.000000
-4.779669	FEE	-0.000000
-4.177609	MOVING	-0.000000
-4.779669	CARRIED	-0.000000
-4.779669	DEER	-0.000000
-4.478639	FULFILLED	-0.000000
-4.302547	DEGREES	-0.000000
-4.779669	IMMATURE	-0.000000
-4.177609	USES	-0.000000
-4.177609	HAND	-0.000000
-4.779669	SNAKE	-0.000000
-4.779669	DEPENDENT	-0.000000
-4.779669	SMART	-0.000000
-4.478639	HURTING	-0.000000
-4.478639	BROWN	-0.000000
-4.478639	SUGAR	-0.000000
-4.302547	WITHIN	-0.000000
-3.934571	GONNA	-0.000000
-4.478639	MONTHLY	-0.000000
-4.779669	INVITATION	-0.000000
-4.478639	METRIC	-0.000000
-4.001517	SUPER	-0.000000
-4.080699	STORM	-0.000000
-4.779669	SUNFISH	-0.000000
-4.478639	WINE	-0.000000
-4.302547	BOIL	-0.000000
-4.779669	PRESSED	-0.000000
-4.478639	BUTTON	-0.000000
-4.779669	CORDLESS	-0.000000
-4.001517	PHONE	-0.000000
-4.302547	CLOSURES	-0.000000
-4.779669	BATHROOM	-0.000000
-4.779669	PAVILLION	-0.000000
-4.478639	FAIR	-0.000000
-4.302547	BRINGING	-0.000000
-4.779669	PARTICULATES	-0.000000
-4.177609	GAS	-0.000000
-4.779669	DIRECTED	-0.000000
-4.478639	ACTED	-0.000000
-4.302547	MARKET	-0.000000
-4.478639	SURVEY	-0.000000
-4.779669	ENCOURAGED	-0.000000
-4.779669	MACARONI	-0.000000
-4.779669	REACHED	-0.000000
-4.478639	MASSAGE	-0.000000
-4.478639	TEMPLES	-0.000000
-4.779669	CUTTING	-0.000000
-4.779669	SALARIES	-0.000000
-4.779669	WORE	-0.000000
-4.779669	SUITS	-0.000000
-4.779669	IDAHO	-0.000000
-4.177609	HERSELF	-0.000000
-4.779669	CARES	-0.000000
-4.779669	REPAIRED	-0.000000
-4.779669	WEIGHS	-0.000000
-4.478639	PARTICULAR	-0.000000
-4.779669	SHOE	-0.000000
-4.478639	PROFESSIONAL	-0.000000
-4.779669	ACTIVITIES	-0.000000
-4.080699	HOWEVER	-0.000000
-4.779669	MOTIVES	-0.000000
-4.478639	MAINLY	-0.000000
-4.302547	MOTHER'S	-0.000000
-4.779669	PLEASANT	-0.000000
-4.779669	ABNORMAL	-0.000000
-4.779669	PENALIZE	-0.000000
-4.478639	BUSINESSES	-0.000000
-4.177609	THIRD	-0.000000
-4.478639	TENNIS	-0.000000
-4.478639	SHOES	-0.000000
-4.001517	STARTS	-0.000000
-4.779669	HITTING	-0.000000
-4.779669	TERRORIST	-0.000000
-4.779669	ATTACKS	-0.000000
-4.177609	NATIONAL	-0.000000
-4.302547	SECURITY	-0.000000
-4.779669	TWEAK	-0.000000
-4.779669	SNICKERING	-0.000000
-4.478639	PARKS	-0.000000
-4.779669	TENDS	-0.000000
-4.779669	DEMANDING	-0.000000
-4.779669	RIFLE	-0.000000
-4.080699	WAITING	-0.000000
-4.478639	AFFORD	-0.000000
-4.478639	PROCESSING	-0.000000
-4.478639	ENTERTAINMENT	-0.000000
-4.779669	MODEL	-0.000000
-4.779669	MASTERS	-0.000000
-4.779669	FERTILIZER	-0.000000
-4.779669	POLLUTES	-0.000000
-4.779669	GROUNDWATER	-0.000000
-4.177609	SIMPLY	-0.000000
-4.779669	HOMES	-0.000000
-4.779669	ELIGIBLE	-0.000000
-4.478639	FURTHER	-0.000000
-4.779669	WHEELS	-0.000000
-4.779669	JOSE	-0.000000
-4.779669	ANALYTICS	-0.000000
-4.302547	VISUALIZATION	-0.000000
-4.779669	STEALING	-0.000000
-4.779669	LOSES	-0.000000
-4.779669	SUGGESTED	-0.000000
-4.779669	COUGH	-0.000000
-3.738276	SIT	-0.000000
-4.779669	SUPPOSE	-0.000000
-4.478639	VALUABLE	-0.000000
-4.779669	DOUBTS	-0.000000
-4.478639	WHATSOEVER	-0.000000
-3.779669	INTERESTED	-0.000000
-4.779669	THOUSANDS	-0.000000
-4.779669	CONSEQUENCES	-0.000000
-4.779669	INSIDES	-0.000000
-4.779669	PANELS	-0.000000
-4.302547	AREN'T	-0.000000
-4.302547	PLANNING	-0.000000
-4.177609	SOCCER	-0.000000
-4.478639	DEVELOP	-0.000000
-4.478639	DATA	-0.000000
-4.779669	ENTRY	-0.000000
-4.779669	PHOTOGRAPHY	-0.000000
-4.779669	SHAKING	-0.000000
-4.779669	EARTHQUAKE	-0.000000
-4.302547	AUTOMATIC	-0.000000
-4.177609	QUICK	-0.000000
-4.779669	VICTORY	-0.000000
-4.779669	REACHING	-0.000000
-4.779669	STUDIED	-0.000000
-4.302547	DOLLAR	-0.000000
-4.779669	BID	-0.000000
-4.779669	FUNNINESS	-0.000000
-4.779669	GAG	-0.000000
-4.779669	FUNDED	-0.000000
-4.779669	LEAN	-0.000000
-4.478639	ROUGHED	-0.000000
-4.302547	EVERYWHERE	-0.000000
-4.779669	UNFOCUSED	-0.000000
-4.779669	SEARCHING	-0.000000
-4.779669	RIVERS	-0.000000
-4.779669	GENERATIONALLY	-0.000000
-4.779669	GUARDS	-0.000000
-4.779669	RIPPED	-0.000000
-4.302547	DRIVEN	-0.000000
-4.478639	TRACK	-0.000000
-4.478639	EVENT	-0.000000
-4.177609	PLAYING	-0.000000
-4.478639	ELABORATE	-0.000000
-4.779669	RANDOM	-0.000000
-4.779669	DORM	-0.000000
-4.779669	PURSUE	-0.000000
-4.779669	POLITICS	-0.000000
-4.779669	RANKS	-0.000000
-4.177609	OPPOSITE	-0.000000
-4.779669	HEADING	-0.000000
-4.478639	CREEK	-0.000000
-4.302547	NECESSARY	-0.000000
-4.779669	GOD	-0.000000
-4.779669	LAKES	-0.000000
-4.779669	TWANG	-0.000000
-4.779669	FINANCE	-0.000000
-4.779669	BOUND	-0.000000
-4.779669	SPREAD	-0.000000
-4.779669	ACCOUNT	-0.000000
-4.779669	SMILED	-0.000000
-4.779669	COYLY	-0.000000
-4.478639	CLASSROOM	-0.000000
-4.478639	PREGNANT	-0.000000
-4.779669	PIE	-0.000000
-4.080699	KEPT	-0.000000
-4.080699	INVASION	-0.000000
-4.779669	JUDO	-0.000000
-4.779669	STEROIDS	-0.000000
-4.779669	MEMBER	-0.000000
-4.779669	METEOROLOGICAL	-0.000000
-4.302547	POSITION	-0.000000
-4.779669	PLANTED	-0.000000
-4.779669	SEPTIC	-0.000000
-4.779669	QUOTES	-0.000000
-4.779669	COMPARABLE	-0.000000
-4.302547	SITUATIONS	-0.000000
-4.779669	ONE'S	-0.000000
-4.779669	KITTENS	-0.000000
-4.478639	ABSOLUTE	-0.000000
-4.779669	CERTAINTY	-0.000000
-4.478639	PLAYS	-0.000000
-4.779669	REHABILITATE	-0.000000
-4.779669	WEEKENDS	-0.000000
-4.478639	BIRD	-0.000000
-4.478639	HUNTING	-0.000000
-4.478639	ELDERLY	-0.000000
-4.478639	PRIVATE	-0.000000
-4.779669	ACCIDENTLY	-0.000000
-4.478639	RELATE	-0.000000
-4.779669	WHEREWITHAL	-0.000000
-4.478639	LOWER	-0.000000
-3.700487	DIVISION	-0.000000
-4.779669	TOURNAMENT	-0.000000
-4.779669	CHARGING	-0.000000
-4.177609	CARRY	-0.000000
-4.177609	STUDY	-0.000000
-4.779669	SPECIES	-0.000000
-4.080699	DETROIT	-0.000000
-4.478639	LIONS	-0.000000
-4.779669	INVEST	-0.000000
-4.779669	FILTERING	-0.000000
-4.779669	HOCKEY	-0.000000
-4.779669	BLOCKERS	-0.000000
-4.779669	CANDIDATE	-0.000000
-4.779669	MERELY	-0.000000
-4.779669	TOOLS	-0.000000
-4.779669	BOWLS	-0.000000
-4.779669	MISSION	-0.000000
-4.302547	DRAW	-0.000000
-4.779669	CORRESPONDING	-0.000000
-4.001517	FIGHT	-0.000000
-4.779669	EXTEND	-0.000000
-4.779669	ADHERE	-0.000000
-4.779669	STANDARD	-0.000000
-4.779669	VISITED	-0.000000
-4.478639	TUTORIAL	-0.000000
-4.779669	CHANGING	-0.000000
-4.779669	PEOPLE'S	-0.000000
-4.779669	EXPECTATIONS	-0.000000
-4.779669	ACCEPTED	-0.000000
-4.779669	INFANTS	-0.000000
-4.779669	RETAILERS	-0.000000
-4.779669	WHEREVER	-0.000000
-4.001517	GIVES	-0.000000
-4.779669	CIVILIAN	-0.000000
-4.779669	STAGGERING	-0.000000
-4.779669	CABINS	-0.000000
-4.779669	COWORKER	-0.000000
-4.478639	CREATE	-0.000000
-4.478639	CATHOLIC	-0.000000
-4.779669	RELIGION	-0.000000
-4.080699	ITSELF	-0.000000
-4.478639	GROCERY	-0.000000
-4.779669	CENTERS	-0.000000
-4.779669	CHEAP	-0.000000
-4.779669	HUNTER	-0.000000
-4.302547	SAFETY	-0.000000
-4.779669	CAR'S	-0.000000
-4.779669	SHAPE	-0.000000
-4.478639	OBVIOUSLY	-0.000000
-4.478639	THRILLED	-0.000000
-4.001517	GREEN	-0.000000
-4.779669	APPARENT	-0.000000
-4.177609	WE'D	-0.000000
-4.779669	LIBRARY	-0.000000
-4.779669	SCRAPS	-0.000000
-4.478639	NAMES	-0.000000
-4.779669	OFFERED	-0.000000
-4.779669	DESIRE	-0.000000
-4.001517	DINNER	-0.000000
-4.302547	CONCERT	-0.000000
-4.779669	ADOPTED	-0.000000
-4.478639	CONCRETE	-0.000000
-4.302547	GLASS	-0.000000
-4.779669	NORMAL	-0.000000
-4.779669	TAXPAYERS	-0.000000
-4.779669	STORIES	-0.000000
-4.478639	SUBSTANTIAL	-0.000000
-4.779669	AMOUNTS	-0.000000
-4.779669	MASSAGED	-0.000000
-4.779669	SELF	-0.000000
-4.779669	DETERMINATION	-0.000000
-4.779669	HATCHBACK	-0.000000
-4.779669	OBLIGATION	-0.000000
-4.779669	FREUD	-0.000000
-4.779669	PSYCHOANALYSIS	-0.000000
-4.478639	YEAH	-0.000000
-4.779669	TASTINGS	-0.000000
-4.779669	VALLEY	-0.000000
-4.302547	MOM	-0.000000
-4.177609	TAUGHT	-0.000000
-4.302547	ENGLISH	-0.000000
-4.779669	LANGUAGE	-0.000000
-4.080699	RESPECT	-0.000000
-4.779669	DIFFICULTY	-0.000000
-4.779669	JOINT	-0.000000
-3.876579	DRUGS	-0.000000
-4.779669	PURCHASED	-0.000000
-4.779669	BABYSITTER	-0.000000
-4.779669	EATING	-0.000000
-4.779669	DAYTON	-0.000000
-4.779669	RATS	-0.000000
-4.779669	PLUGGED	-0.000000
-4.779669	FEEDING	-0.000000
-4.779669	TUBE	-0.000000
-4.302547	SKIING	-0.000000
-4.779669	CARRYING	-0.000000
-4.779669	CAMERA	-0.000000
-4.302547	WEIGHT	-0.000000
-4.779669	SWIMS	-0.000000
-4.779669	LIFESAVER	-0.000000
-4.779669	CASSETTE	-0.000000
-4.478639	TAPES	-0.000000
-4.478639	COOL	-0.000000
-4.779669	GOAL	-0.000000
-4.302547	CASH	-0.000000
-4.779669	WOK	-0.000000
-4.779669	ASSED	-0.000000
-4.779669	CONVERTED	-0.000000
-4.177609	ADMIT	-0.000000
-4.779669	COMPARISON	-0.000000
-4.177609	GARDENING	-0.000000
-4.779669	BONELESS	-0.000000
-4.779669	BLOOMING	-0.000000
-4.302547	CABLE	-0.000000
-4.478639	SEASONS	-0.000000
-4.478639	REALIZE	-0.000000
-4.779669	OYSTER	-0.000000
-4.779669	BARS	-0.000000
-4.080699	RATE	-0.000000
-4.080699	CLUB	-0.000000
-4.779669	DONATE	-0.000000
-4.779669	EFFORTS	-0.000000
-4.779669	JACKET	-0.000000
-3.876579	CLASSICAL	-0.000000
-4.779669	TYPICALLY	-0.000000
-4.779669	LOGICAL	-0.000000
-4.779669	EXTREME	-0.000000
-4.177609	IDEAS	-0.000000
-4.478639	STOPPED	-0.000000
-4.779669	HOMEOWNER	-0.000000
-4.779669	TOUCHED	-0.000000
-4.779669	RENTED	-0.000000
-4.779669	AFGHANISTAN	-0.000000
-4.779669	PASSING	-0.000000
-4.779669	MULTIPLE	-0.000000
-4.779669	SEED	-0.000000
-4.478639	BEDROOMS	-0.000000
-4.779669	FLOCK	-0.000000
-4.779669	CIRCLING	-0.000000
-4.478639	MEDICINE	-0.000000
-4.779669	OWE	-0.000000
-4.779669	CULTURE	-0.000000
-4.001517	ASIA	-0.000000
-4.779669	USER	-0.000000
-4.478639	POSSIBLE	-0.000000
-4.779669	MASTER'S	-0.000000
-4.302547	TICKETS	-0.000000
-4.177609	RAISED	-0.000000
-4.779669	CHRISTIAN	-0.000000
-4.478639	HEAT	-0.000000
-4.478639	MEDIUM	-0.000000
-4.779669	PAN	-0.000000
-3.934571	DEFINITELY	-0.000000
-4.779669	WHIPPING	-0.000000
-4.779669	DRAGGED	-0.000000
-4.779669	CHOOSING	-0.000000
-4.779669	VEHICLE	-0.000000
-4.302547	CHARGE	-0.000000
-4.302547	SALES	-0.000000
-4.779669	SEXUAL	-0.000000
-4.779669	LABOR	-0.000000
-4.779669	EXCESSIVE	-0.000000
-4.177609	TESTED	-0.000000
-4.779669	PERSUADED	-0.000000
-4.779669	EXERCISING	-0.000000
-4.478639	STOCK	-0.000000
-4.779669	DIRE	-0.000000
-4.779669	PROSECUTOR	-0.000000
-4.478639	MURDERED	-0.000000
-4.779669	SPICY	-0.000000
-4.478639	PER	-0.000000
-4.779669	KILOMETERS	-0.000000
-4.302547	PRICE	-0.000000
-4.779669	EXTREMELY	-0.000000
-4.779669	CUSTOMERS	-0.000000
-4.779669	VALUED	-0.000000
-4.177609	PROPERTY	-0.000000
-4.779669	FAVORING	-0.000000
-4.478639	MAD	-0.000000
-4.177609	JOBS	-0.000000
-4.779669	SELLING	-0.000000
-3.934571	SEVEN	-0.000000
-4.779669	MOW	-0.000000
-4.779669	INTERESTS	-0.000000
-4.478639	POSSIBLY	-0.000000
-4.779669	GHOST	-0.000000
-4.478639	SIZE	-0.000000
-4.779669	TOWARD	-0.000000
-4.302547	BOTTOM	-0.000000
-4.779669	SAVINGS	-0.000000
-4.779669	NOTE	-0.000000
-4.302547	PUTTING	-0.000000
-4.779669	DRAG	-0.000000
-4.779669	HALL	-0.000000
-4.779669	DAUGHTERS	-0.000000
-4.779669	HAMSTERS	-0.000000
-4.302547	HANG	-0.000000
-4.779669	ROOTS	-0.000000
-4.478639	OPPORTUNITY	-0.000000
-4.779669	GRACE	-0.000000
-4.779669	PUSHES	-0.000000
-4.478639	BEYOND	-0.000000
-4.779669	SALESPERSON	-0.000000
-4.779669	SIXTY	-0.000000
-4.779669	VITAL	-0.000000
-4.779669	CORRECTLY	-0.000000
-4.302547	CRAZY	-0.000000
-4.779669	PROMOTES	-0.000000
-4.478639	VALUES	-0.000000
-4.302547	EDGE	-0.000000
-4.779669	COMMITMENT	-0.000000
-4.478639	SLICE	-0.000000
-4.779669	GRAPE	-0.000000
-4.478639	LETS	-0.000000
-4.779669	ARRIVE	-0.000000
-4.302547	TYPICAL	-0.000000
-4.779669	GRANT	-0.000000
-4.177609	DISCLOSURE	-0.000000
-4.779669	CHEESES	-0.000000
-4.779669	FRUITS	-0.000000
-4.779669	CARED	-0.000000
-4.302547	SEWING	-0.000000
-4.779669	PORK	-0.000000
-4.779669	LOIN	-0.000000
-4.080699	GRILL	-0.000000
-4.779669	DAD'S	-0.000000
-4.478639	THROWN	-0.000000
-4.779669	CHEERS	-0.000000
-4.779669	RESOLVE	-0.000000
-4.779669	UPSETTING	-0.000000
-4.779669	RECESSION	-0.000000
-4.779669	DRAGGING	-0.000000
-4.779669	WANTS	-0.000000
-4.302547	INDIVIDUAL	-0.000000
-4.779669	JUMPING	-0.000000
-4.779669	NURSES	-0.000000
-4.478639	WORN	-0.000000
-4.779669	SOMEPLACE	-0.000000
-4.478639	EARNED	-0.000000
-4.779669	MERIT	-0.000000
-4.779669	BADGE	-0.000000
-4.779669	OVERFLOWED	-0.000000
-4.779669	EVALUATE	-0.000000
-4.779669	LOSS	-0.000000
-4.478639	RAP	-0.000000
-4.779669	SLOWER	-0.000000
-4.779669	QUILTING	-0.000000
-4.478639	DESTROY	-0.000000
-4.302547	BOY'S	-0.000000
-4.779669	RELEASED	-0.000000
-4.478639	SAND	-0.000000
-4.779669	TECH	-0.000000
-4.302547	COVER	-0.000000
-4.779669	EARS	-0.000000
-4.001517	SENSE	-0.000000
-4.779669	OPENING	-0.000000
-4.779669	FOUNDATIONS	-0.000000
-4.779669	NATION	-0.000000
-4.779669	CHROME	-0.000000
-4.177609	HOUSTON	-0.000000
-4.779669	SANITATION	-0.000000
-4.478639	HORSES	-0.000000
-4.302547	JOINED	-0.000000
-4.779669	TEMPTING	-0.000000
-4.001517	SENT	-0.000000
-4.779669	RETROSPECT	-0.000000
-4.779669	MUSCLES	-0.000000
-4.302547	BEHIND	-0.000000
-4.779669	FACTORS	-0.000000
-4.779669	FORTIES	-0.000000
-4.779669	CROWDED	-0.000000
-4.779669	CENTIMETER	-0.000000
-4.779669	WIDTH	-0.000000
-4.779669	THUMBNAIL	-0.000000
-4.779669	DIE	-0.000000
-4.779669	DUDLEY	-0.000000
-4.779669	STAYED	-0.000000
-4.478639	FRISBEE	-0.000000
-4.779669	MINI	-0.000000
-4.779669	VAN	-0.000000
-4.779669	ATTACKING	-0.000000
-4.779669	JOGGING	-0.000000
-4.478639	POOR	-0.000000
-4.302547	CLASSES	-0.000000
-4.779669	SCOUTS	-0.000000
-4.779669	STATISTIC	-0.000000
-4.779669	SCARE	-0.000000
-4.779669	ATLANTA	-0.000000
-4.779669	GEORGIA	-0.000000
-4.779669	TIES	-0.000000
-4.478639	NEEDED	-0.000000
-4.478639	LED	-0.000000
-4.779669	PROMISE	-0.000000
-4.779669	SPECIFIC	-0.000000
-4.779669	TROUBLED	-0.000000
-4.779669	YOUTHS	-0.000000
-4.779669	ORDINARY	-0.000000
-4.177609	BOTHER	-0.000000
-4.478639	SCARED	-0.000000
-4.177609	BECOME	-0.000000
-4.779669	PHYSICS	-0.000000
-4.779669	REMEMBERED	-0.000000
-4.478639	ENGINEERING	-0.000000
-4.779669	STRESS	-0.000000
-4.779669	PHASE	-0.000000
-4.478639	LATEST	-0.000000
-4.478639	CEREAL	-0.000000
-4.177609	VOID	-0.000000
-4.478639	ENVISION	-0.000000
-4.779669	STARTER	-0.000000
-4.779669	BACKUP	-0.000000
-4.779669	INSECTICIDES	-0.000000
-4.779669	WRITTEN	-0.000000
-4.478639	EASILY	-0.000000
-4.478639	OHIO	-0.000000
-4.779669	ROUNDS	-0.000000
-4.478639	BLEACHERS	-0.000000
-4.779669	MARINES	-0.000000
-3.934571	BROTHER	-0.000000
-4.779669	PROVIDE	-0.000000
-4.779669	VOTES	-0.000000
-4.779669	SUCCESSIVE	-0.000000
-4.302547	ANSWERS	-0.000000
-4.779669	OUTGROW	-0.000000
-4.779669	FLUORESCENT	-0.000000
-4.779669	COLORS	-0.000000
-4.478639	JAMAICA	-0.000000
-4.779669	IRAQ	-0.000000
-4.779669	WHICHEVER	-0.000000
-4.478639	CARPET	-0.000000
-4.478639	CLEANING	-0.000000
-4.177609	TASTE	-0.000000
-4.779669	MORAL	-0.000000
-4.478639	BACKGROUND	-0.000000
-4.478639	TRANSMITTED	-0.000000
-4.478639	THROWING	-0.000000
-4.779669	BATHROOMS	-0.000000
-4.779669	PLENTY	-0.000000
-4.302547	PEACE	-0.000000
-4.478639	CORPS	-0.000000
-4.302547	DANCE	-0.000000
-4.779669	COOKER	-0.000000
-4.779669	SENATE	-0.000000
-4.478639	COMMITTEE	-0.000000
-4.080699	EXCEPT	-0.000000
-4.779669	STENCILED	-0.000000
-4.478639	WALL	-0.000000
-4.779669	CHAT	-0.000000
-4.779669	IOWA	-0.000000
-4.779669	EARNS	-0.000000
-4.779669	UNFEELING	-0.000000
-4.779669	EXPLORED	-0.000000
-4.478639	ENTIRE	-0.000000
-4.478639	JOINING	-0.000000
-4.302547	CODE	-0.000000
-4.779669	SIGNAL	-0.000000
-4.779669	STAKEHOLDERS	-0.000000
-4.779669	CONSENT	-0.000000
-4.779669	CONFIDENT	-0.000000
-4.779669	SHALL	-0.000000
-4.478639	WORRIED	-0.000000
-4.779669	FARMHOUSE	-0.000000
-4.080699	TEND	-0.000000
-4.779669	VOLUME	-0.000000
-4.779669	SERVED	-0.000000
-4.779669	JIG	-0.000000
-4.779669	SCROLL	-0.000000
-4.779669	WELCOMED	-0.000000
-4.478639	UNIQUE	-0.000000
-4.779669	RELATIVELY	-0.000000
-4.302547	HAPPENS	-0.000000
-4.478639	BEEF	-0.000000
-4.779669	BROCCOLI	-0.000000
-4.779669	STRIPS	-0.000000
-4.302547	RECOGNIZE	-0.000000
-4.779669	STAKE	-0.000000
-4.779669	PROFESSORS	-0.000000
-4.779669	UNIVERSITIES	-0.000000
-4.779669	VERGE	-0.000000
-4.302547	FINISH	-0.000000
-4.779669	PROSECUTING	-0.000000
-4.478639	ATTORNEY	-0.000000
-4.478639	ENJOYS	-0.000000
-4.779669	PRETEND	-0.000000
-4.779669	SAILBOAT	-0.000000
-4.779669	INFECTED	-0.000000
-4.478639	VIRUS	-0.000000
-4.478639	SERVE	-0.000000
-4.779669	COLUMNS	-0.000000
-4.779669	LIKELY	-0.000000
-4.779669	CLOUDY	-0.000000
-4.779669	DREARY	-0.000000
-4.779669	REMEDIAL	-0.000000
-4.779669	PROMPTLY	-0.000000
-4.302547	GROWS	-0.000000
-4.779669	ITINERARY	-0.000000
-4.779669	SCOOPED	-0.000000
-4.779669	ALLUSION	-0.000000
-4.779669	SERVANTS	-0.000000
-4.177609	BUNCH	-0.000000
-4.779669	TRUCKS	-0.000000
-4.779669	MINNEAPOLIS	-0.000000
-4.478639	COURTS	-0.000000
-4.779669	SAILING	-0.000000
-4.478639	BOAT	-0.000000
-4.779669	RELAXING	-0.000000
-4.779669	JOHNSON	-0.000000
-4.779669	VOWING	-0.000000
-4.177609	POLLUTION	-0.000000
-4.779669	FACTORY	-0.000000
-4.779669	PREVIOUS	-0.000000
-4.779669	SOFTWARE	-0.000000
-4.779669	TYPING	-0.000000
-4.779669	COMMAND	-0.000000
-4.779669	MANIPULATING	-0.000000
-4.302547	FEDERAL	-0.000000
-4.478639	FUNDING	-0.000000
-4.177609	BUILD	-0.000000
-4.478639	BRIDGE	-0.000000
-4.779669	TWIN	-0.000000
-4.478639	ONION	-0.000000
-4.302547	GARLIC	-0.000000
-4.779669	EDUCATED	-0.000000
-4.779669	PINK	-0.000000
-4.779669	ACCIDENTALLY	-0.000000
-4.779669	ENCOUNTERED	-0.000000
-4.779669	PARTIAL	-0.000000
-4.779669	DISHES	-0.000000
-4.478639	BROKE	-0.000000
-4.779669	DESCENT	-0.000000
-4.779669	PLATE	-0.000000
-4.478639	MOUNTAIN	-0.000000
-4.478639	TREE	-0.000000
-4.779669	BARK	-0.000000
-4.779669	DOORS	-0.000000
-4.779669	CELLO	-0.000000
-4.779669	SEIZURE	-0.000000
-4.779669	SPAGHETTI	-0.000000
-4.779669	REBUILD	-0.000000
-4.779669	SIXTEEN	-0.000000
-4.779669	SEVENTEEN	-0.000000
-4.302547	TELLING	-0.000000
-4.478639	JOKES	-0.000000
-4.779669	PREY	-0.000000
-4.478639	BASED	-0.000000
-4.478639	NEARLY	-0.000000
-4.779669	DROWNED	-0.000000
-4.779669	DEVELOPING	-0.000000
-4.779669	IMAGINATION	-0.000000
-4.779669	MINUSCULE	-0.000000
-4.302547	AFTERNOON	-0.000000
-4.779669	SUPERVISION	-0.000000
-4.478639	FILE	-0.000000
-4.779669	LAWSUIT	-0.000000
-4.080699	ALLOW	-0.000000
-4.779669	SPIRITS	-0.000000
-4.779669	PROVEN	-0.000000
-4.302547	FISHING	-0.000000
-4.779669	SUNRISE	-0.000000
-4.779669	SUSAN	-0.000000
-4.478639	AGE	-0.000000
-4.779669	ABUSED	-0.000000
-4.779669	COUNTING	-0.000000
-4.779669	SUSPENSEFUL	-0.000000
-4.779669	ROOMS	-0.000000
-4.779669	ZIPPER	-0.000000
-4.779669	INSENSITIVE	-0.000000
-4.779669	REWARD	-0.000000
-4.302547	EQUAL	-0.000000
-4.779669	STRENGTH	-0.000000
-4.177609	RENT	-0.000000
-4.478639	RELAX	-0.000000
-4.779669	CAUSING	-0.000000
-4.779669	SUPPORTED	-0.000000
-4.302547	WELCOME	-0.000000
-4.478639	SINGLE	-0.000000
-4.779669	INSPIRING	-0.000000
-4.779669	EPISODE	-0.000000
-4.779669	MAJORITY	-0.000000
-4.478639	DISCUSSION	-0.000000
-4.478639	OREGON	-0.000000
-4.779669	PEANUTS	-0.000000
-4.478639	STAIRS	-0.000000
-4.779669	APART	-0.000000
-4.779669	PRODUCTION	-0.000000
-4.302547	KEEPS	-0.000000
-4.779669	MANAGERS	-0.000000
-4.779669	CUSTOMER	-0.000000
-4.779669	DEPLOYS	-0.000000
-4.779669	TEMPLATE	-0.000000
-4.779669	COMPUTING	-0.000000
-4.779669	CHECKS	-0.000000
-4.779669	SOIL	-0.000000
-4.779669	BONSAI	-0.000000
-4.478639	POT	-0.000000
-4.779669	CRITICAL	-0.000000
-4.779669	STANDING	-0.000000
-4.779669	CHINA	-0.000000
-4.779669	CORPORATION	-0.000000
-4.779669	MAINE	-0.000000
-4.478639	BEER	-0.000000
-4.478639	TRIP	-0.000000
-4.478639	BREAK	-0.000000
-4.779669	NURSERY	-0.000000
-4.779669	GENRE	-0.000000
-4.779669	UNTO	-0.000000
-4.779669	FEEDBACK	-0.000000
-4.779669	CONSIDERABLE	-0.000000
-4.478639	INVESTMENT	-0.000000
-4.779669	COAL	-0.000000
-4.779669	MINING	-0.000000
-4.779669	REGIONS	-0.000000
-4.779669	SIBERIA	-0.000000
-4.080699	WORD	-0.000000
-4.080699	TURNED	-0.000000
-4.779669	MISSIONARIES	-0.000000
-4.779669	ATTITUDES	-0.000000
-4.478639	ROYAL	-0.000000
-4.478639	BANK	-0.000000
-4.779669	REFERRED	-0.000000
-4.779669	SAVANTS	-0.000000
-4.779669	ADVANCES	-0.000000
-4.478639	COMPUTERS	-0.000000
-4.779669	ROBBERIES	-0.000000
-4.779669	APPEALS	-0.000000
-4.779669	FUSION	-0.000000
-4.779669	LIBERATION	-0.000000
-4.779669	PREDICTABLE	-0.000000
-4.779669	PATTERN	-0.000000
-4.779669	STRAP	-0.000000
-4.177609	L	-0.000000
-4.779669	O	-0.000000
-4.779669	DRIVES	-0.000000
-4.478639	IMPRESSED	-0.000000
-4.779669	PURPOSE	-0.000000
-4.478639	ETHICAL	-0.000000
-4.478639	NOTICED	-0.000000
-4.779669	WINNER	-0.000000
-4.478639	SEVENTIES	-0.000000
-4.779669	GUT	-0.000000
-4.177609	FEELING	-0.000000
-4.080699	TEACH	-0.000000
-4.779669	WEEK'S	-0.000000
-4.779669	PANT	-0.000000
-4.779669	MORNINGS	-0.000000
-4.779669	SLICKERS	-0.000000
-4.779669	BIRMINGHAM	-0.000000
-4.478639	POSSIBILITY	-0.000000
-4.779669	BRIDGES	-0.000000
-4.779669	ROADS	-0.000000
-4.779669	DISGUSTING	-0.000000
-4.779669	GOSH	-0.000000
-4.779669	ALIEN	-0.000000
-4.779669	DROPPING	-0.000000
-4.779669	GEARED	-0.000000
-4.302547	TOWARDS	-0.000000
-4.779669	CLEANLINESS	-0.000000
-4.779669	MILL	-0.000000
-4.478639	SOX	-0.000000
-4.779669	ELEMENTARY	-0.000000
-4.478639	EMPLOYEE	-0.000000
-4.779669	DIES	-0.000000
-4.779669	ROCK	-0.000000
-4.478639	BACKPACKING	-0.000000
-4.779669	FAIL	-0.000000
-4.779669	SOURCE	-0.000000
-4.779669	REFRESHER	-0.000000
-4.779669	OPPORTUNE	-0.000000
-4.779669	ARISES	-0.000000
-4.177609	AWARE	-0.000000
-4.779669	THUNDERSTORMS	-0.000000
-4.478639	PSYCHIATRISTS	-0.000000
-4.302547	FLOWERS	-0.000000
-4.478639	FANCY	-0.000000
-4.779669	SPENDS	-0.000000
-4.478639	DESERT	-0.000000
-4.177609	BAGS	-0.000000
-4.779669	FINISHING	-0.000000
-4.779669	JUNE	-0.000000
-4.779669	GENRES	-0.000000
-4.779669	EXPLORING	-0.000000
-4.478639	INCHES	-0.000000
-4.177609	CHANCE	-0.000000
-4.779669	TYPEWRITER	-0.000000
-4.779669	ABORTION	-0.000000
-4.779669	BITE	-0.000000
-4.779669	RADIATOR	-0.000000
-4.779669	DRESSER	-0.000000
-4.779669	PIRATES	-0.000000
-4.080699	PROGRAMS	-0.000000
-4.779669	LOUSY	-0.000000
-4.478639	ESSENTIALLY	-0.000000
-4.779669	REALISTIC	-0.000000
-4.779669	BEETS	-0.000000
-4.779669	BALLOONED	-0.000000
-4.478639	AFFECT	-0.000000
-4.779669	OUTCOME	-0.000000
-4.779669	INSIGHT	-0.000000
-4.478639	LISTENING	-0.000000
-4.478639	HUGE	-0.000000
-4.478639	LUCKY	-0.000000
-4.779669	HILLS	-0.000000
-4.779669	TOTALITARIAN	-0.000000
-4.302547	REGIME	-0.000000
-4.779669	FINED	-0.000000
-4.478639	MILLIONS	-0.000000
-4.779669	GRABBED	-0.000000
-4.779669	GORGEOUS	-0.000000
-4.779669	ARBITRAGE	-0.000000
-4.478639	SYMPHONY	-0.000000
-4.779669	MARKETING	-0.000000
-4.779669	ALIVE	-0.000000
-4.478639	RELIGIOUS	-0.000000
-4.779669	SATAN	-0.000000
-4.779669	REJOICED	-0.000000
-4.779669	BIRTH	-0.000000
-4.478639	HIGHWAY	-0.000000
-4.779669	BELIEVER	-0.000000
-4.478639	ORLANDO	-0.000000
-4.779669	TREASURES	-0.000000
-4.779669	QUARTER	-0.000000
-4.779669	EIGHTIES	-0.000000
-4.177609	INDEPENDENT	-0.000000
-4.302547	ANIMALS	-0.000000
-4.779669	SEPTEMBER	-0.000000
-3.825426	SUN	-0.000000
-4.779669	TRANSPORTATION	-0.000000
-4.779669	INCIDENCE	-0.000000
-4.779669	PREMISE	-0.000000
-4.779669	ROYALS	-0.000000
-4.177609	TRAVELED	-0.000000
-4.779669	HORSE	-0.000000
-4.779669	BUGGY	-0.000000
-4.779669	HANGINGS	-0.000000
-4.779669	CONVENIENT	-0.000000
-4.779669	DUG	-0.000000
-4.779669	FENCE	-0.000000
-4.779669	BEHAVIORS	-0.000000
-4.302547	ACCEPTABLE	-0.000000
-4.779669	UNEMPLOYMENT	-0.000000
-4.478639	MATURE	-0.000000
-4.478639	CONTRACTOR	-0.000000
-4.779669	RAISES	-0.000000
-4.779669	HEADSTONE	-0.000000
-4.478639	NICER	-0.000000
-4.478639	PREFERENCES	-0.000000
-4.779669	COLLISION	-0.000000
-4.779669	WRINKLES	-0.000000
-4.478639	FACE	-0.000000
-4.779669	AGES	-0.000000
-4.779669	IMPROVED	-0.000000
-4.779669	EVASION	-0.000000
-4.779669	PISTOL	-0.000000
-4.779669	RANGE	-0.000000
-4.779669	CAUSES	-0.000000
-4.779669	BELONG	-0.000000
-4.779669	FINDS	-0.000000
-4.779669	TWENTIES	-0.000000
-4.779669	ATTORNEYS	-0.000000
-4.779669	JUSTICE	-0.000000
-4.779669	DENTS	-0.000000
-4.779669	MILWAUKEE	-0.000000
-4.478639	MANAGER	-0.000000
-4.779669	AKING	-0.000000
-4.779669	PROFITS	-0.000000
-4.779669	TOMATOES	-0.000000
-4.779669	SUNDAYS	-0.000000
-4.779669	ENTHUSIASTIC	-0.000000
-4.478639	COWBOY	-0.000000
-4.478639	PRODUCT	-0.000000
-4.779669	FOLKS	-0.000000
-4.779669	VOCAL	-0.000000
-4.779669	ALTOGETHER	-0.000000
-4.478639	SIGNED	-0.000000
-4.779669	APPLIES	-0.000000
-4.779669	GAMING	-0.000000
-4.779669	MIKE	-0.000000
-4.779669	GUNNER	-0.000000
-4.779669	CONVOY	-0.000000
-4.177609	ROUTINE	-0.000000
-4.779669	AFFIRMATIVE	-0.000000
-4.779669	ACTION	-0.000000
-4.779669	PRIMARY	-0.000000
-4.779669	REMAIN	-0.000000
-4.779669	INTUITIVE	-0.000000
-4.478639	DETERRENT	-0.000000
-4.779669	PROTECT	-0.000000
-4.478639	SOVIET	-0.000000
-4.779669	COMPOSER	-0.000000
-4.779669	CHAR	-0.000000
-4.779669	SMOKE	-0.000000
-4.779669	SOUNDED	-0.000000
-4.302547	UTAH	-0.000000
-4.478639	TUCKED	-0.000000
-4.478639	STALLS	-0.000000
-4.779669	LOTTERY	-0.000000
-4.478639	JOINTS	-0.000000
-4.478639	JOG	-0.000000
-4.478639	STAND	-0.000000
-4.779669	PICKUP	-0.000000
-4.302547	TRUCK	-0.000000
-4.779669	SOUTHERN	-0.000000
-4.302547	SOLUTION	-0.000000
-4.779669	VICTIMS	-0.000000
-4.779669	PUBLIC'S	-0.000000
-4.779669	SPLIT	-0.000000
-4.779669	PRIDE	-0.000000
-4.779669	ELECTIONS	-0.000000
-4.302547	USING	-0.000000
-4.779669	JAMAICAN	-0.000000
-4.478639	POWDER	-0.000000
-4.779669	BEGAN	-0.000000
-4.779669	UNABLE	-0.000000
-4.177609	PAIN	-0.000000
-4.779669	RUSSELL	-0.000000
-4.478639	ULTIMATELY	-0.000000
-4.779669	VENEZUELA	-0.000000
-4.779669	WORLD'S	-0.000000
-4.779669	LARGEST	-0.000000
-4.779669	RESERVES	-0.000000
-4.779669	CHECKUP	-0.000000
-4.478639	BLACK	-0.000000
-4.779669	LIBERALS	-0.000000
-4.478639	PROPONENT	-0.000000
-4.779669	ENDING	-0.000000
-4.779669	REGRESSIVE	-0.000000
-4.779669	MOISTURE	-0.000000
-4.478639	CONTENT	-0.000000
-4.080699	HANDLE	-0.000000
-4.779669	DOWNLOAD	-0.000000
-4.779669	JOKING	-0.000000
-4.779669	DOCTORS	-0.000000
-4.779669	TON	-0.000000
-4.478639	PERSONALLY	-0.000000
-4.779669	SUNSET	-0.000000
-4.779669	AGREEMENTS	-0.000000
-4.779669	LIMIT	-0.000000
-4.478639	DAD	-0.000000
-4.779669	NOON	-0.000000
-4.779669	RECONSIDER	-0.000000
-4.478639	GENTLEMAN	-0.000000
-4.779669	SPEAKS	-0.000000
-4.779669	SINK	-0.000000
-4.779669	UNDERGRADUATE	-0.000000
-4.779669	SUBSCRIBE	-0.000000
-4.779669	DRAWING	-0.000000
-4.779669	PAINTING	-0.000000
-4.779669	EVOKES	-0.000000
-4.779669	RESPONSE	-0.000000
-4.779669	GYM	-0.000000
-4.478639	SIGN	-0.000000
-4.779669	MARKUPS	-0.000000
-4.779669	ITEMS	-0.000000
-4.779669	RENTING	-0.000000
-4.779669	LAY	-0.000000
-4.302547	DRY	-0.000000
-4.177609	STATIONS	-0.000000
-4.779669	SHOWED	-0.000000
-4.779669	COMPLEX	-0.000000
-4.779669	DAFFODILS	-0.000000
-4.302547	SALAD	-0.000000
-4.779669	BOTTLES	-0.000000
-4.779669	FEWER	-0.000000
-4.779669	UNIFORMS	-0.000000
-4.478639	RETURN	-0.000000
-4.779669	WINDOWS	-0.000000
-4.779669	DEPEND	-0.000000
-4.302547	OPINION	-0.000000
-4.779669	SALTY	-0.000000
-4.779669	ENVY	-0.000000
-4.779669	MANDATORY	-0.000000
-4.779669	DELICATE	-0.000000
-4.779669	HACKING	-0.000000
-4.779669	FELONY	-0.000000
-4.779669	VERSATILE	-0.000000
-4.779669	REEL	-0.000000
-4.779669	RIVETING	-0.000000
-4.478639	ATTACK	-0.000000
-4.779669	ENEMY	-0.000000
-4.779669	LIFETIME	-0.000000
-4.779669	RELATIONS	-0.000000
-4.779669	SITUATIONAL	-0.000000
-4.478639	POLITICIANS	-0.000000
-4.478639	CLEARLY	-0.000000
-4.779669	RODE	-0.000000
-4.779669	FERRY	-0.000000
-4.779669	DYING	-0.000000
-4.779669	ALEX	-0.000000
-4.779669	CALCULATING	-0.000000
-4.779669	POWERS	-0.000000
-4.779669	BUSES	-0.000000
-4.779669	EAGLE	-0.000000
-4.302547	ELECTED	-0.000000
-4.779669	APPS	-0.000000
-4.478639	BORN	-0.000000
-4.478639	EXAMPLE	-0.000000
-4.779669	CREATIVE	-0.000000
-4.779669	AMERICA'S	-0.000000
-4.302547	COOKING	-0.000000
-4.779669	DIVERSITY	-0.000000
-4.779669	CASUAL	-0.000000
-4.478639	OVERTURNED	-0.000000
-4.478639	DANGER	-0.000000
-4.779669	MANAGEMENT	-0.000000
-4.779669	INTERIOR	-0.000000
-4.779669	FOYER	-0.000000
-4.478639	EIGHTEEN	-0.000000
-4.779669	IMMEASURABLY	-0.000000
-4.779669	SUBARU	-0.000000
-4.779669	HONDA	-0.000000
-4.779669	DESPITE	-0.000000
-4.478639	OPEN	-0.000000
-4.779669	MILEAGE	-0.000000
-4.478639	TUESDAY	-0.000000
-4.779669	WEDNESDAY	-0.000000
-4.478639	CALLING	-0.000000
-4.779669	COMMENTARIES	-0.000000
-4.779669	LEGACY	-0.000000
-4.478639	FAULT	-0.000000
-4.779669	CHEAPLY	-0.000000
-4.779669	GRANDMOTHER	-0.000000
-4.478639	FIGURE	-0.000000
-4.779669	CLASSIFY	-0.000000
-4.779669	PROFESSIONALS	-0.000000
-4.779669	QUARANTINE	-0.000000
-4.302547	DREAM	-0.000000
-4.302547	PAYMENT	-0.000000
-4.779669	SOCIALLY	-0.000000
-4.478639	STAR	-0.000000
-4.779669	SUBTITLES	-0.000000
-4.302547	FEELS	-0.000000
-4.478639	LOST	-0.000000
-4.779669	FOCUS	-0.000000
-4.779669	BOLIVIA	-0.000000
-4.779669	ENDS	-0.000000
-4.478639	BURNING	-0.000000
-4.302547	YOUNGER	-0.000000
-4.779669	PIKE'S	-0.000000
-4.779669	PEAK	-0.000000
-4.779669	LIFTING	-0.000000
-4.779669	ADOPTION	-0.000000
-4.779669	UPSIDE	-0.000000
-4.779669	TRAILER	-0.000000
-4.779669	TREASURE	-0.000000
-4.478639	BURIED	-0.000000
-4.779669	QUALIFIED	-0.000000
-4.779669	ARGUE	-0.000000
-4.779669	TAP	-0.000000
-4.779669	LESSONS	-0.000000
-4.779669	ALUMINUM	-0.000000
-4.779669	SHINY	-0.000000
-4.779669	DULL	-0.000000
-4.779669	HARDLY	-0.000000
-4.779669	IMMUNE	-0.000000
-4.302547	VOLUNTEER	-0.000000
-4.478639	FLIGHTS	-0.000000
-4.779669	TURBULENCE	-0.000000
-4.779669	ALLEGED	-0.000000
-4.779669	DEMOCRATS	-0.000000
-4.779669	ACCORDING	-0.000000
-4.779669	UTTERANCE	-0.000000
-4.779669	COMPLAIN	-0.000000
-4.302547	SEEMED	-0.000000
-4.779669	URBAN	-0.000000
-4.779669	TERRITORY	-0.000000
-4.779669	ZOO	-0.000000
-4.779669	TOMORROW	-0.000000
-4.779669	HOBBYIST	-0.000000
-4.779669	STRAIGHT	-0.000000
-4.779669	MANATEES	-0.000000
-4.779669	FATALLY	-0.000000
-4.779669	COLLISIONS	-0.000000
-4.779669	BOATS	-0.000000
-4.478639	HAWAII	-0.000000
-4.779669	TROUT	-0.000000
-4.478639	STORES	-0.000000
-4.779669	VACATE	-0.000000
-4.779669	REGULARLY	-0.000000
-4.779669	POODLES	-0.000000
-4.779669	EVERYTHING'S	-0.000000
-4.779669	VISIONS	-0.000000
-4.779669	PITCHED	-0.000000
-4.779669	MAIDEN	-0.000000
-4.779669	SIGNALS	-0.000000
-4.478639	STYLE	-0.000000
-4.779669	TRENDS	-0.000000
-4.779669	PLANS	-0.000000
-4.779669	SCREAM	-0.000000
-4.779669	LOUDER	-0.000000
-4.779669	PROFIT	-0.000000
-4.177609	EXCITING	-0.000000
-4.779669	HAMBURGER	-0.000000
-4.779669	FRIES	-0.000000
-4.478639	CONVINCE	-0.000000
-4.302547	WRITE	-0.000000
-4.779669	ECHELONS	-0.000000
-4.779669	COMPARE	-0.000000
-4.779669	FLOUNDER	-0.000000
-4.779669	SALMON	-0.000000
-4.779669	STEAKS	-0.000000
-4.478639	EXPLOIT	-0.000000
-4.779669	SPOILERS	-0.000000
-4.779669	AFFECTING	-0.000000
-4.779669	OCCASIONAL	-0.000000
-4.779669	DOSE	-0.000000
-4.478639	SKUNK	-0.000000
-4.779669	PRECISELY	-0.000000
-4.779669	WARRANT	-0.000000
-4.779669	CONSTANTLY	-0.000000
-4.779669	BUREAU	-0.000000
-4.779669	INVESTIGATION	-0.000000
-4.779669	INFORMATION	-0.000000
-4.779669	INJURIES	-0.000000
-4.779669	MINOR	-0.000000
-4.779669	CROSSED	-0.000000
-4.779669	OMISSION	-0.000000
-4.779669	OUTRIGHT	-0.000000
-4.478639	LIES	-0.000000
-4.779669	AWFULLY	-0.000000
-4.779669	STIR	-0.000000
-4.478639	FRY	-0.000000
-4.779669	OLDEST	-0.000000
-4.478639	FRUSTRATING	-0.000000
-4.779669	HAIR	-0.000000
-4.779669	NASHVILLE	-0.000000
-4.779669	STRONGER	-0.000000
-4.177609	YESTERDAY	-0.000000
-4.779669	FREQUENT	-0.000000
-4.779669	RULE	-0.000000
-4.779669	CONDITION	-0.000000
-4.779669	PROPER	-0.000000
-4.779669	TERM	-0.000000
-4.779669	BECOMING	-0.000000
-4.302547	PLEASED	-0.000000
-4.779669	SUBMARINE	-0.000000
-4.779669	SPAIN	-0.000000
-4.779669	SPRINGS	-0.000000
-4.779669	GRATEFUL	-0.000000
-4.478639	DROP	-0.000000
-4.779669	OVERPRICED	-0.000000
-4.779669	TUNA	-0.000000
-4.779669	INFATUATED	-0.000000
-4.779669	CURB	-0.000000
-4.779669	MANAGE	-0.000000
-4.779669	TURMOIL	-0.000000
-4.779669	TALLEST	-0.000000
-4.478639	WEST	-0.000000
-4.779669	CHRONICLE	-0.000000
-4.177609	ILLINOIS	-0.000000
-4.779669	TEENAGE	-0.000000
-4.779669	MANHOOD	-0.000000
-4.302547	LEAVES	-0.000000
-4.478639	HORRIBLE	-0.000000
-4.779669	RANCH	-0.000000
-4.779669	NEIGHBORHOOD	-0.000000
-4.779669	SWITCHED	-0.000000
-4.779669	NORMALLY	-0.000000
-4.478639	CAROLINA	-0.000000
-4.779669	SIXTH	-0.000000
-4.779669	GRADER	-0.000000
-4.779669	HOMEWORK	-0.000000
-4.779669	EQUIPMENT	-0.000000
-4.779669	LOUISIANA	-0.000000
-4.779669	KNOB	-0.000000
-4.779669	TABLE	-0.000000
-4.779669	SUPPLY	-0.000000
-4.779669	MERCEDES	-0.000000
-4.779669	KICK	-0.000000
-4.779669	LOS	-0.000000
-4.779669	ANGELES	-0.000000
-4.478639	PRINCIPAL	-0.000000
-4.478639	PARKING	-0.000000
-4.779669	FOODS	-0.000000
-4.478639	GUY'S	-0.000000
-4.478639	BEATING	-0.000000
-4.779669	SOMEDAY	-0.000000
-4.779669	DEGRAY	-0.000000
-4.779669	PARK	-0.000000
-4.779669	ARKANSAS	-0.000000
-4.478639	BEGINNING	-0.000000
-4.779669	PANIC	-0.000000
-4.779669	THROAT	-0.000000
-4.478639	MODEM	-0.000000
-4.779669	IMPRESS	-0.000000
-4.779669	COUNCIL	-0.000000
-4.779669	FORCES	-0.000000
-4.478639	INCOME	-0.000000
-4.779669	CAYENNE	-0.000000
-4.779669	PEPPER	-0.000000
-4.779669	STEEL	-0.000000
-4.779669	CURTAIN	-0.000000
-4.779669	SENIOR	-0.000000
-4.779669	CITIZEN'S	-0.000000
-4.779669	NEARBY	-0.000000
-4.478639	LAUNDRY	-0.000000
-4.478639	HEALTH	-0.000000
-4.779669	ANNOYANCE	-0.000000
-4.779669	MYSTERIES	-0.000000
-4.302547	INFLUENCE	-0.000000
-4.779669	REQUEST	-0.000000
-4.779669	FIELDS	-0.000000
-4.779669	CONVICTED	-0.000000
-4.779669	SMARTER	-0.000000
-4.779669	KNOWLEDGEABLE	-0.000000
-4.779669	DENTAL	-0.000000
-4.779669	PAINTED	-0.000000
-4.779669	WALLS	-0.000000
-4.779669	BOW	-0.000000
-4.779669	PLUNGER	-0.000000
-4.080699	HISTORY	-0.000000
-4.779669	TRAINED	-0.000000
-4.302547	COAST	-0.000000
-4.779669	STOP	-0.000000
-4.779669	EXPLAIN	-0.000000
-4.779669	EVIDENTLY	-0.000000
-4.779669	DETAILS	-0.000000
-4.779669	TRADITIONAL	-0.000000
-4.478639	UNFORTUNATE	-0.000000
-4.478639	LOSE	-0.000000
-4.779669	YARD'S	-0.000000
-4.779669	FENCED	-0.000000
-4.779669	LOOSE	-0.000000
-4.779669	CASUALTY	-0.000000
-4.478639	AFFECTED	-0.000000
-4.779669	TRIBES	-0.000000
-4.779669	CARPENTER	-0.000000
-4.779669	ASPECT	-0.000000
-4.779669	ATTACHMENT	-0.000000
-4.779669	ATTACHED	-0.000000
-4.779669	ENVIRONMENTAL	-0.000000
-4.779669	STOCKS	-0.000000
-4.779669	SPRAYER	-0.000000
-4.779669	ASKING	-0.000000
-4.779669	GRADUATION	-0.000000
-4.779669	BEHAVE	-0.000000
-4.779669	FIFTIES	-0.000000
-4.302547	REALIZED	-0.000000
-4.779669	DATE	-0.000000
-4.779669	LOSSES	-0.000000
-4.478639	SONG	-0.000000
-4.478639	MANUALLY	-0.000000
-4.779669	STRUGGLE	-0.000000
-4.779669	MORMON	-0.000000
-4.779669	SERIES	-0.000000
-4.779669	CANCELLED	-0.000000
-4.779669	VARIATION	-0.000000
-4.779669	AMONG	-0.000000
-4.302547	COSTS	-0.000000
-4.779669	ACTIVITY	-0.000000
-4.779669	GRANDMOTHER'S	-0.000000
-4.779669	JOURNEY	-0.000000
-4.779669	FOOT	-0.000000
-4.779669	IDOL	-0.000000
-4.779669	COLOR	-0.000000
-4.779669	DECK	-0.000000
-4.779669	STIFF	-0.000000
-4.779669	TRAGIC	-0.000000
-4.302547	STUDENTS	-0.000000
-4.779669	CONSUMING	-0.000000
-4.478639	PACKAGE	-0.000000
-4.779669	EYES	-0.000000
-4.779669	ALABAMA	-0.000000
-4.779669	TOWED	-0.000000
-4.779669	VISA	-0.000000
-4.779669	THEY'D	-0.000000
-4.779669	CHEVY	-0.000000
-4.779669	SAMPLE	-0.000000
-4.779669	REPLYING	-0.000000
-4.478639	AUTOMOBILES	-0.000000
-4.779669	CONTEMPLATE	-0.000000
-4.779669	NATURE	-0.000000
-4.779669	PENGUINS	-0.000000
-4.779669	MIGRANT	-0.000000
-4.478639	WORKERS	-0.000000
-4.779669	IMMEDIATE	-0.000000
-4.779669	EXTENT	-0.000000
-4.779669	EXCUSE	-0.000000
-4.779669	PRODUCTIVE	-0.000000
-4.779669	PANTS	-0.000000
-4.478639	PHILADELPHIA	-0.000000
-4.779669	RECOUPED	-0.000000
-4.779669	FILED	-0.000000
-4.779669	OILING	-0.000000
-4.478639	ECONOMY	-0.000000
-4.779669	SEATTLE	-0.000000
-4.478639	POTATO	-0.000000
-4.779669	FARMER	-0.000000
-4.779669	SUPPORT	-0.000000
-4.779669	SAVES	-0.000000
-4.779669	BAT	-0.000000
-4.779669	PARTICIPATED	-0.000000
-4.779669	PUPPIES	-0.000000
-4.779669	MISSING	-0.000000
-4.478639	IMMIGRATION	-0.000000
-4.779669	COMPLICATED	-0.000000
-4.478639	DESTROYING	-0.000000
-4.779669	RETALIATE	-0.000000
-4.779669	PICNIC	-0.000000
-4.779669	WOODS	-0.000000
-4.779669	CONTRIBUTE	-0.000000
-4.779669	CLICKING	-0.000000
-4.779669	NOISES	-0.000000
-4.779669	SALE	-0.000000
-4.779669	CAPACITY	-0.000000
-4.779669	PLANES	-0.000000
-4.779669	WINGS	-0.000000
-4.779669	SPIRITUAL	-0.000000
-4.779669	PRESSURE	-0.000000
-4.779669	SOLUTIONS	-0.000000
-4.779669	STANDARDS	-0.000000
-4.779669	PRESIDENTIAL	-0.000000
-4.779669	ELECTION	-0.000000
-4.779669	DEPLOY	-0.000000
-4.478639	CAREER	-0.000000
-4.779669	IMPROVE	-0.000000
-4.779669	HIGHWAYS	-0.000000
-4.779669	BONUSES	-0.000000
-4.779669	REGENCY	-0.000000
-4.779669	PIGEONS	-0.000000
-4.779669	SUCKS	-0.000000
-4.779669	HELL	-0.000000
-4.779669	MEASUREMENTS	-0.000000
-4.302547	MILLION	-0.000000
-4.779669	DISTANT	-0.000000
-4.779669	GALAXIES	-0.000000
-4.779669	PATCHES	-0.000000
-4.779669	FUR	-0.000000
-4.779669	FOURTH	-0.000000
-4.779669	BRAND	-0.000000
-4.779669	DECLAWED	-0.000000
-4.779669	STICKY	-0.000000
-4.779669	GRAINY	-0.000000
-4.779669	QUAVERED	-0.000000
-4.779669	RAINS	-0.000000
-4.779669	INCREDIBLE	-0.000000
-4.779669	EMPLOYED	-0.000000
-4.779669	SHOCKED	-0.000000
-4.779669	BELLIES	-0.000000
-4.779669	RUBBED	-0.000000
-4.779669	VITAMINS	-0.000000
-4.779669	NUTRIENTS	-0.000000
-4.779669	ESSENTIAL	-0.000000
-4.779669	SCORE	-0.000000
-4.302547	HURT	-0.000000
-4.779669	SOUP	-0.000000
-4.779669	FLAME	-0.000000
-4.779669	RATINGS	-0.000000
-4.779669	REQUIRE	-0.000000
-4.779669	BEAUTY	-0.000000
-4.478639	ALCOHOL	-0.000000
-4.779669	POND	-0.000000
-4.779669	SEWED	-0.000000
-4.779669	BUTTONS	-0.000000
-4.779669	SHIRT	-0.000000
-4.478639	ORGANIZATIONS	-0.000000
-4.478639	DIED	-0.000000
-4.779669	SEMESTERS	-0.000000
-4.779669	RUDE	-0.000000
-4.779669	GIFT	-0.000000
-4.779669	INTERACTION	-0.000000
-4.779669	WILLING	-0.000000
-4.779669	SACRIFICE	-0.000000
-4.779669	LEAGUE	-0.000000
-4.779669	PITCHER	-0.000000
-4.779669	COUNTER	-0.000000
-4.302547	MEASUREMENT	-0.000000
-4.779669	WONDER	-0.000000
-4.779669	COOKED	-0.000000
-4.779669	SHARING	-0.000000
-4.779669	KNOWLEDGE	-0.000000
-4.779669	VEGETABLE	-0.000000
-4.779669	PAPERS	-0.000000
-4.779669	SETTING	-0.000000
-4.779669	RESOLUTION	-0.000000
-4.779669	BOMB	-0.000000
-4.779669	SQUAD	-0.000000
-4.779669	PLANNED	-0.000000
-4.779669	LARGELY	-0.000000
-4.779669	LINES	-0.000000
-4.779669	WALMART	-0.000000
-4.779669	KNOCKED	-0.000000
-4.779669	SOCKS	-0.000000
-4.478639	POSITIVE	-0.000000
-4.779669	ORANGES	-0.000000
-4.478639	ANNOYED	-0.000000
-4.779669	CARDBOARD	-0.000000
-4.779669	SAD	-0.000000
-4.779669	THANKING	-0.000000
-4.779669	HEAVEN	-0.000000
-4.779669	PERMISSION	-0.000000
-4.779669	ADVENTURES	-0.000000
-4.779669	STATUS	-0.000000
-4.779669	QUO	-0.000000
-4.779669	PUERTO	-0.000000
-4.779669	RICO	-0.000000
-4.779669	JOKE	-0.000000
-4.779669	TROOPS	-0.000000
-4.779669	GIANT	-0.000000
-4.779669	GEOLOGY	-0.000000
-4.779669	DORMS	-0.000000
-4.779669	LABEL	-0.000000
-4.779669	DROWSY	-0.000000
-4.779669	NEEDLE	-0.000000
-4.302547	MILITARY	-0.000000
-4.779669	INDIANA	-0.000000
-4.779669	DELUSION	-0.000000
-4.779669	PERSISTS	-0.000000
-4.779669	PIG	-0.000000
-4.779669	EATER	-0.000000
-4.478639	COMMERCIAL	-0.000000
-4.478639	CAKE	-0.000000
-4.779669	EXPANDING	-0.000000
-4.779669	SUFFERED	-0.000000
-4.779669	SIMILARLY	-0.000000
-4.779669	CLUE	-0.000000
-4.779669	SHARE	-0.000000
-4.779669	PERFORMANCE	-0.000000
-4.779669	BUSH	-0.000000
-4.478639	ANESTHESIA	-0.000000
-4.478639	HIP	-0.000000
-4.478639	KNEE	-0.000000
-4.478639	REPLACEMENT	-0.000000
-4.302547	SURGERY	-0.000000
-4.779669	PRESIDENTS	-0.000000
-4.779669	STOVE	-0.000000
-4.779669	CONCENTRATING	-0.000000
-4.779669	INCREASING	-0.000000
-4.779669	CLOSET	-0.000000
-4.779669	NERVOUS	-0.000000
-4.779669	WEAKNESSES	-0.000000
-4.779669	PERPETUAL	-0.000000
-4.779669	RELEASE	-0.000000
-4.779669	SESSION	-0.000000
-4.779669	HARDER	-0.000000
-4.779669	LEGISLATION	-0.000000
-4.779669	INCREDIBLY	-0.000000
-4.478639	WET	-0.000000
-4.779669	WARPED	-0.000000
-4.779669	REBUILT	-0.000000
-4.779669	DEALING	-0.000000
-4.779669	SENSING	-0.000000
-4.779669	DEVICE	-0.000000
-4.478639	ENTIRELY	-0.000000
-4.478639	CHARACTER	-0.000000
-4.779669	ABUSES	-0.000000
-4.302547	CROSS	-0.000000
-4.779669	CONSISTENCY	-0.000000
-4.779669	MOTIVATE	-0.000000
-4.779669	AFRICA	-0.000000
-4.779669	LATIN	-0.000000
-4.779669	INVESTMENTS	-0.000000
-4.779669	CURED	-0.000000
-4.779669	MASK	-0.000000
-4.779669	LIE	-0.000000
-4.779669	PASTURE	-0.000000
-4.779669	MOUSE	-0.000000
-4.779669	MANNER	-0.000000
-4.779669	ALLERGIC	-0.000000
-4.779669	PRIZE	-0.000000
-4.779669	PREFER	-0.000000
-4.779669	HOTTER	-0.000000
-4.779669	AMBIANCE	-0.000000
-4.779669	CENTS	-0.000000
-4.779669	CHEAPER	-0.000000
-4.779669	LOANS	-0.000000
-4.779669	PATIENTS	-0.000000
-4.779669	MANNING	-0.000000
-4.478639	MEANT	-0.000000
-4.779669	GENERATIONS	-0.000000
-4.779669	REALISTICALLY	-0.000000
-4.779669	SPAM	-0.000000
-4.779669	EXPEDITED	-0.000000
-4.779669	COCAINE	-0.000000
-4.779669	BUST	-0.000000
-4.779669	DEPENDENCY	-0.000000
-4.779669	INVERSION	-0.000000
-4.779669	PRINCIPLE	-0.000000
-4.779669	SWAM	-0.000000
-4.478639	PACIFIC	-0.000000
-4.478639	OCEAN	-0.000000
-4.779669	RENAMED	-0.000000
-4.779669	GRAMMATICAL	-0.000000
-4.779669	HOTEL	-0.000000
-4.779669	BOOKED	-0.000000
-4.779669	ARCHAIC	-0.000000
-4.779669	RHINO	-0.000000
-4.779669	POACHING	-0.000000
-4.779669	RISE	-0.000000
-4.779669	TREND	-0.000000
-4.779669	DEVON	-0.000000
-4.779669	REX	-0.000000
-4.478639	DESIGN	-0.000000
-4.779669	CAST	-0.000000
-4.779669	TEACHING	-0.000000
-4.779669	CHOOSE	-0.000000
-4.779669	R	-0.000000
-4.779669	E	-0.000000
-4.779669	F	-0.000000
-4.779669	BROADCAST	-0.000000
-4.779669	ASSOCIATED	-0.000000
-4.779669	STASH	-0.000000
-4.779669	STURDY	-0.000000
-4.779669	MORALLY	-0.000000
-4.779669	EGOS	-0.000000
-4.779669	FEARS	-0.000000
-4.779669	BOILS	-0.000000
-4.779669	WRITES	-0.000000
-4.779669	ORDERS	-0.000000
-4.779669	EAGLES	-0.000000
-4.779669	FANS	-0.000000
-4.779669	LANGUAGES	-0.000000
-4.779669	UPSTATE	-0.000000
-4.779669	HATED	-0.000000
-4.779669	CHUNK	-0.000000
-4.779669	BULLET	-0.000000
-4.779669	RHODE	-0.000000
-4.779669	ISLAND	-0.000000
-4.779669	PRECISE	-0.000000
-4.779669	CLERKS	-0.000000
-4.779669	CRITIC'S	-0.000000
-4.779669	AWARD	-0.000000
-4.779669	BLOOMED	-0.000000
-4.779669	SPRING	-0.000000
-4.779669	REPLACE	-0.000000
-4.779669	BELTS	-0.000000
-4.779669	SHAREWARE	-0.000000
-4.779669	NATIVITY	-0.000000
-4.779669	SCENE	-0.000000
-4.779669	CATEGORIES	-0.000000
-4.779669	SENTENCING	-0.000000
-4.779669	DEFENDANT'S	-0.000000
-4.779669	INNOCENCE	-0.000000
-4.779669	UNFORTUNATELY	-0.000000
-4.779669	EQUATIONS	-0.000000
-4.779669	SHRIMP	-0.000000
-4.779669	BALTIMORE	-0.000000
-4.779669	SECTOR	-0.000000
-4.779669	CONTEST	-0.000000
-4.779669	CONSERVATIVE	-0.000000
-4.779669	PARANOIA	-0.000000
-4.779669	UNION	-0.000000
-4.779669	REDUCED	-0.000000
-4.779669	HOBBIES	-0.000000
-4.779669	FIENDS	-0.000000
-4.779669	SAFELY	-0.000000
-4.779669	WEAPON	-0.000000
-4.779669	SHORE	-0.000000
-4.779669	PARENTAL	-0.000000
-4.779669	INVOLVEMENT	-0.000000
-4.779669	PRISONS	-0.000000
-4.779669	PERMANENTLY	-0.000000
-4.779669	READER	-0.000000
-4.779669	LEARNED	-0.000000
-4.478639	TRUTH	-0.000000
-4.779669	TUITION	-0.000000
-4.779669	REIMBURSEMENT	-0.000000
-4.779669	ROOFING	-0.000000
-4.779669	DISSATISFIED	-0.000000
-4.302547	ARTICLE	-0.000000
-4.779669	BILL	-0.000000
-4.779669	GATES	-0.000000
-4.779669	RESIGN	-0.000000
-4.779669	READS	-0.000000
-4.478639	PROGRAMMING	-0.000000
-4.779669	SHOWING	-0.000000
-4.478639	PROVE	-0.000000
-4.478639	CORRECT	-0.000000
-4.779669	PERCENTAGE	-0.000000
-4.779669	NEIGHBORHOODS	-0.000000
-4.779669	DEVELOPMENT	-0.000000
-4.779669	COMMUNITIES	-0.000000
-4.779669	BROTHER'S	-0.000000
-4.478639	HELPED	-0.000000
-4.779669	REPAINT	-0.000000
-4.779669	PARTICIPATION	-0.000000
-4.779669	SCANNED	-0.000000
-4.779669	BAR	-0.000000
-4.478639	BIN	-0.000000
-4.779669	GLANDS	-0.000000
-4.779669	REMOVED	-0.000000
-4.779669	CARTOONS	-0.000000
-4.779669	INVOICE	-0.000000
-4.779669	EMAIL	-0.000000
-4.779669	QUOTATION	-0.000000
-4.779669	DAY'S	-0.000000
-4.779669	OBSERVATION	-0.000000
-4.779669	GRAIN	-0.000000
-4.779669	SALT	-0.000000
-4.779669	ACRES	-0.000000
-4.779669	CARNIVAL	-0.000000
-4.779669	EARLIER	-0.000000
-4.779669	BUS	-0.000000
-4.779669	DRIVERS	-0.000000
-4.779669	ILL	-0.000000
-4.779669	HANGING	-0.000000
-4.779669	GUIDANCE	-0.000000
-4.478639	ANNOUNCED	-0.000000
-4.779669	FRIDAY	-0.000000
-4.779669	PRESIDENCY	-0.000000
-4.779669	REGRETTED	-0.000000
-4.779669	KITE	-0.000000
-4.779669	STRANGEST	-0.000000
-4.779669	MATERIALS	-0.000000
-4.779669	PICKED	-0.000000
-4.779669	FOUGHT	-0.000000
-4.779669	BREAKER	-0.000000
-4.779669	WEIRDEST	-0.000000
-4.779669	MISTRIAL	-0.000000
-4.779669	MECHANICAL	-0.000000
-4.478639	RAPE	-0.000000
-4.779669	CHAMPION	-0.000000
-4.779669	CHOSEN	-0.000000
-4.779669	EMBARKED	-0.000000
-4.779669	MARS	-0.000000
-4.779669	REALM	-0.000000
-4.779669	CANCER	-0.000000
-4.779669	COLLECTION	-0.000000
-4.779669	HEMP	-0.000000
-4.779669	PROVISIONS	-0.000000
-4.779669	LAVISH	-0.000000
-4.779669	FRIGHTENING	-0.000000
-4.779669	DEAD	-0.000000
-4.779669	DISTURBING	-0.000000
-4.779669	WROTE	-0.000000
-4.779669	SUPPOSEDLY	-0.000000
-4.779669	SUSPECTED	-0.000000
-4.779669	'D	-0.000000
-4.779669	DUD	-0.000000
-4.779669	CHARACTERS	-0.000000
-4.779669	HARDEST	-0.000000
-4.779669	LEGAL	-0.000000
-4.779669	TREASURY	-0.000000
-4.779669	INSISTED	-0.000000
-4.779669	INITIATIVE	-0.000000
-4.779669	REPUBLICANS	-0.000000
-4.779669	DISMAYED	-0.000000
-4.779669	RARE	-0.000000
-4.779669	CIRCUIT	-0.000000
-4.779669	BUSHES	-0.000000
-4.779669	COMPETE	-0.000000
-4.779669	VOLUNTARY	-0.000000
-4.779669	RETIREMENT	-0.000000
-4.779669	WAKING	-0.000000
-4.779669	PRODUCTIVITY	-0.000000
-4.779669	POUNDS	-0.000000
-4.779669	GREATER	-0.000000
-4.779669	SEVERE	-0.000000
-4.779669	RESPONSIBLE	-0.000000
-4.779669	REHABILITATION	-0.000000
-4.779669	CLOSED	-0.000000
-4.779669	ADVANTAGES	-0.000000
-4.779669	PASSIVE	-0.000000
-4.779669	OBJECTIONS	-0.000000
-4.779669	DIVERTED	-0.000000
-4.779669	ASIANS	-0.000000
-4.478639	FILM	-0.000000
-4.779669	COMBAT	-0.000000
-4.779669	WILDFIRES	-0.000000
-4.779669	REMARKABLY	-0.000000
-4.779669	INCOMPETENT	-0.000000
-4.779669	RECEPTACLE	-0.000000
-4.779669	COURAGE	-0.000000
-4.779669	ACADEMIC	-0.000000
-4.779669	EXHAUSTED	-0.000000
-4.779669	FRANCISCO	-0.000000
-4.478639	BIGGER	-0.000000
-4.779669	BALTIC	-0.000000
-4.779669	OAKS	-0.000000
-4.779669	DEBATED	-0.000000
-4.779669	CRY	-0.000000
-4.779669	GALLON	-0.000000
-4.779669	BUCKETS	-0.000000
-4.779669	HEAL	-0.000000
-4.779669	MESSAGE	-0.000000
-4.779669	INVISIBLE	-0.000000
-4.779669	PASS	-0.000000
-4.779669	INSPECTION	-0.000000
-4.779669	GRAPHICS	-0.000000
-4.779669	HIGHEST	-0.000000
-4.779669	BIDDER	-0.000000
-4.779669	LEADERS	-0.000000
-4.779669	FLOWER	-0.000000
-4.779669	BEDS	-0.000000
-4.779669	SUPPORTIVE	-0.000000
-4.779669	AIRWAY	-0.000000
-4.779669	PROTECTION	-0.000000
-4.779669	LEERY	-0.000000
-4.779669	DINING	-0.000000
-4.779669	ARLINGTON	-0.000000
-4.779669	FARMING	-0.000000
-4.779669	KENTUCKY	-0.000000
-4.779669	LADY	-0.000000
-4.779669	NICEST	-0.000000
-4.779669	YARDS	-0.000000
-4.779669	ADJUSTING	-0.000000
-4.779669	EXISTED	-0.000000
-4.779669	HURTS	-0.000000
-4.779669	PARTNERS	-0.000000
-4.779669	CHEEK	-0.000000
-4.779669	NEBRASKA	-0.000000
-4.779669	ECONOMICALLY	-0.000000
-4.779669	PROJECTS	-0.000000
-4.779669	SUBURBS	-0.000000
-4.779669	CHILLIER	-0.000000
-4.779669	RESTROOMS	-0.000000
-4.779669	BALL	-0.000000
-4.779669	CAROL	-0.000000
-4.779669	POISED	-0.000000
-4.779669	RECALL	-0.000000
-4.779669	VS	-0.000000
-4.779669	REDSKINS	-0.000000
-4.779669	INSTANCE	-0.000000
-4.779669	WARNING	-0.000000
-4.302547	MILE	-0.000000
-4.779669	SIMILAR	-0.000000
-4.779669	SUFFICIENT	-0.000000
-4.779669	LEARNERS	-0.000000
-4.779669	GENTLE	-0.000000
-4.779669	LIFESTYLE	-0.000000
-4.779669	HEARING	-0.000000
-4.779669	AUNTS	-0.000000
-4.779669	UNCLES	-0.000000
-4.779669	GLORY	-0.000000
-4.779669	COCONUT	-0.000000
-4.779669	REMEDY	-0.000000
-4.779669	FIXING	-0.000000
-4.779669	QUARTERBACK	-0.000000
-4.779669	UNIFYING	-0.000000
-4.779669	SHALLOWS	-0.000000
-4.779669	CREATES	-0.000000
-4.779669	CLICK	-0.000000
-4.779669	RECORDING	-0.000000
-4.779669	ENTERTAINING	-0.000000
-4.779669	WIND'S	-0.000000
-4.779669	BLOWING	-0.000000
-4.779669	TREASURY'S	-0.000000
-4.779669	DAKOTA	-0.000000
-4.478639	GUILTY	-0.000000
-4.779669	WIDESPREAD	-0.000000
-4.779669	KIDNAPPED	-0.000000
-4.779669	BREED	-0.000000
-4.779669	LIBERTIES	-0.000000
-4.779669	ABSURD	-0.000000
-4.779669	INSTITUTIONAL	-0.000000
-4.779669	COLESLAW	-0.000000
-4.779669	LUMPING	-0.000000
-4.478639	KILLER	-0.000000
-4.779669	IDENTIFICATION	-0.000000
-4.779669	GAIN	-0.000000
-4.779669	FAME	-0.000000
-4.779669	FOUNDATION	-0.000000
-4.779669	NEITHER	-0.000000
-4.779669	DEDUCT	-0.000000
-4.779669	EXPENSE	-0.000000
-4.779669	VISUALS	-0.000000
-4.779669	HOOKED	-0.000000
-4.779669	RATTLING	-0.000000
-4.779669	EXCUSES	-0.000000
-4.779669	SWIM	-0.000000
-4.779669	QUICKLY	-0.000000
-4.478639	ALTHOUGH	-0.000000
-4.779669	APPARENTLY	-0.000000
-4.779669	BAKED	-0.000000
-4.779669	TRULY	-0.000000
-4.779669	FOURTEEN	-0.000000
-4.779669	BLEW	-0.000000
-4.779669	IMMEASURABLE	-0.000000
-4.779669	BAH	-0.000000
-4.779669	SOMETIME	-0.000000
-4.779669	REGARDLESS	-0.000000
-4.779669	VOCABULARY	-0.000000
-4.779669	LIMITED	-0.000000
-4.779669	POLLINATE	-0.000000
-4.779669	BUMBLE	-0.000000
-4.779669	BEES	-0.000000
-4.779669	HUSBAND'S	-0.000000
-4.779669	CIRCUMCISION	-0.000000
-4.779669	LINKED	-0.000000
-4.779669	VARIOUS	-0.000000
-4.779669	MELTDOWN	-0.000000
-4.779669	FILL	-0.000000
-4.779669	JAR	-0.000000
-4.779669	BOILING	-0.000000
-4.779669	PERSPECTIVE	-0.000000
-4.779669	INFORMED	-0.000000
-4.478639	WAVES	-0.000000
-4.779669	GASKET	-0.000000
-4.779669	BOLT	-0.000000
-4.779669	STUBS	-0.000000
-4.779669	RELATIONSHIP	-0.000000
-4.779669	AMAZON	-0.000000
-4.779669	CHORE	-0.000000
-4.779669	ELECTRICAL	-0.000000
-4.779669	ABIDE	-0.000000
-4.779669	RULES	-0.000000
-4.779669	RUB	-0.000000
-4.779669	CHOPS	-0.000000
-4.779669	LIBERALLY	-0.000000
-4.779669	OLIVE	-0.000000
-4.779669	COMPRESS	-0.000000
-4.779669	HIGHLY	-0.000000
-4.779669	MOTIVATED	-0.000000
-4.478639	HAIL	-0.000000
-4.779669	MARY	-0.000000
-4.779669	DONATED	-0.000000
-4.779669	CHARITIES	-0.000000
-4.779669	BISCUITS	-0.000000
-4.779669	GRAVY	-0.000000
-4.779669	BECAME	-0.000000
-4.779669	BULB	-0.000000
-4.779669	BUFFALO	-0.000000
-4.779669	HEALTHY	-0.000000
-4.478639	TILL	-0.000000
-4.779669	STITCH	-0.000000
-4.779669	FEMININE	-0.000000
-4.779669	PIDDLES	-0.000000
-4.779669	HAT	-0.000000
-4.779669	ACQUAINTANCE	-0.000000
-4.779669	EXAMS	-0.000000
-4.779669	CLOSING	-0.000000
-4.779669	NAPS	-0.000000
-4.779669	HISTORICAL	-0.000000
-4.779669	BEE	-0.000000
-4.779669	INSTINCT	-0.000000
-4.779669	COMMERCIALIZED	-0.000000
-4.779669	DIEGO	-0.000000
-4.779669	VILLAGE	-0.000000
-4.779669	FREEDOM	-0.000000
-4.779669	SUNROOM	-0.000000
